<MethodSetup Method="BDT::BDT"><Variables NVar="22"><Variable VarIndex="0" Type="F" Expression="pho1_eta" Label="pho1_eta" Title="pho1_eta" Unit="" Internal="pho1_eta" Min="0.0e+00" Max="0.0e+00" /><Variable VarIndex="1" Type="F" Expression="pho2_eta" Label="pho2_eta" Title="pho2_eta" Unit="" Internal="pho2_eta" Min="0.0e+00" Max="0.0e+00" /><Variable VarIndex="2" Type="F" Expression="pho1_phi" Label="pho1_phi" Title="pho1_phi" Unit="" Internal="pho1_phi" Min="0.0e+00" Max="0.0e+00" /><Variable VarIndex="3" Type="F" Expression="pho2_phi" Label="pho2_phi" Title="pho2_phi" Unit="" Internal="pho2_phi" Min="0.0e+00" Max="0.0e+00" /><Variable VarIndex="4" Type="F" Expression="pho1_ptoM" Label="pho1_ptoM" Title="pho1_ptoM" Unit="" Internal="pho1_ptoM" Min="0.0e+00" Max="0.0e+00" /><Variable VarIndex="5" Type="F" Expression="pho2_ptoM" Label="pho2_ptoM" Title="pho2_ptoM" Unit="" Internal="pho2_ptoM" Min="0.0e+00" Max="0.0e+00" /><Variable VarIndex="6" Type="F" Expression="dipho_cosphi" Label="dipho_cosphi" Title="dipho_cosphi" Unit="" Internal="dipho_cosphi" Min="0.0e+00" Max="0.0e+00" /><Variable VarIndex="7" Type="F" Expression="dipho_deltaeta" Label="dipho_deltaeta" Title="dipho_deltaeta" Unit="" Internal="dipho_deltaeta" Min="0.0e+00" Max="0.0e+00" /><Variable VarIndex="8" Type="F" Expression="met" Label="met" Title="met" Unit="" Internal="met" Min="0.0e+00" Max="0.0e+00" /><Variable VarIndex="9" Type="F" Expression="met_phi" Label="met_phi" Title="met_phi" Unit="" Internal="met_phi" Min="0.0e+00" Max="0.0e+00" /><Variable VarIndex="10" Type="F" Expression="met_sumEt" Label="met_sumEt" Title="met_sumEt" Unit="" Internal="met_sumEt" Min="0.0e+00" Max="0.0e+00" /><Variable VarIndex="11" Type="F" Expression="dphi_pho1_met" Label="dphi_pho1_met" Title="dphi_pho1_met" Unit="" Internal="dphi_pho1_met" Min="0.0e+00" Max="0.0e+00" /><Variable VarIndex="12" Type="F" Expression="dphi_pho2_met" Label="dphi_pho2_met" Title="dphi_pho2_met" Unit="" Internal="dphi_pho2_met" Min="0.0e+00" Max="0.0e+00" /><Variable VarIndex="13" Type="F" Expression="pt_balance" Label="pt_balance" Title="pt_balance" Unit="" Internal="pt_balance" Min="0.0e+00" Max="0.0e+00" /><Variable VarIndex="14" Type="F" Expression="njet" Label="njet" Title="njet" Unit="" Internal="njet" Min="0.0e+00" Max="0.0e+00" /><Variable VarIndex="15" Type="F" Expression="max_jet_pt" Label="max_jet_pt" Title="max_jet_pt" Unit="" Internal="max_jet_pt" Min="0.0e+00" Max="0.0e+00" /><Variable VarIndex="16" Type="F" Expression="min_dphi_jet_met" Label="min_dphi_jet_met" Title="min_dphi_jet_met" Unit="" Internal="min_dphi_jet_met" Min="0.0e+00" Max="0.0e+00" /><Variable VarIndex="17" Type="F" Expression="vtxprob" Label="vtxprob" Title="vtxprob" Unit="" Internal="vtxprob" Min="0.0e+00" Max="0.0e+00" /><Variable VarIndex="18" Type="F" Expression="sigmarv" Label="sigmarv" Title="sigmarv" Unit="" Internal="sigmarv" Min="0.0e+00" Max="0.0e+00" /><Variable VarIndex="19" Type="F" Expression="sigmawv" Label="sigmawv" Title="sigmawv" Unit="" Internal="sigmawv" Min="0.0e+00" Max="0.0e+00" /><Variable VarIndex="20" Type="F" Expression="max_phoId" Label="max_phoId" Title="max_phoId" Unit="" Internal="max_phoId" Min="0.0e+00" Max="0.0e+00" /><Variable VarIndex="21" Type="F" Expression="min_phoId" Label="min_phoId" Title="min_phoId" Unit="" Internal="min_phoId" Min="0.0e+00" Max="0.0e+00" /></Variables><GeneralInfo><Info name="Creator" value="xgboost2TMVA" /><Info name="AnalysisType" value="Classification" /></GeneralInfo><Options><Option name="NodePurityLimit" modified="No">5.00e-01</Option><Option name="BoostType" modified="Yes">Grad</Option></Options><Weights NTrees="150" AnalysisType="1"><BinaryTree type="DecisionTree" boostWeight="1.0e+00" itree="0"><Node pos="s" depth="0" NCoef="0" IVar="8" Cut="172.9599" cType="1" res="0.0e+00" rms="0.0e+00" purity="0.0e+00" nType="0"><Node pos="l" depth="1" NCoef="0" IVar="5" Cut="0.708685279" cType="1" res="0.0e+00" rms="0.0e+00" purity="0.0e+00" nType="0"><Node pos="l" depth="2" NCoef="0" IVar="15" Cut="121.036972" cType="1" res="0.0e+00" rms="0.0e+00" purity="0.0e+00" nType="0"><Node pos="l" depth="3" NCoef="0" IVar="12" Cut="1.65004122" cType="1" res="0.0e+00" rms="0.0e+00" purity="0.0e+00" nType="0"><Node pos="l" depth="4" NCoef="0" IVar="5" Cut="0.265708208" cType="1" res="0.0e+00" rms="0.0e+00" purity="0.0e+00" nType="0"><Node pos="l" depth="5" NCoef="0" IVar="8" Cut="121.033546" cType="1" res="0.0e+00" rms="0.0e+00" purity="0.0e+00" nType="0"><Node pos="l" depth="6" NCoef="0" IVar="-1" Cut="0.0e+00" cType="1" res="-0.0661795214" rms="0.0e+00" purity="0.0e+00" nType="-99" /><Node pos="r" depth="6" NCoef="0" IVar="0" Cut="1.19920373" cType="1" res="0.0e+00" rms="0.0e+00" purity="0.0e+00" nType="0"><Node pos="l" depth="7" NCoef="0" IVar="10" Cut="1454.30347" cType="1" res="0.0e+00" rms="0.0e+00" purity="0.0e+00" nType="0"><Node pos="l" depth="8" NCoef="0" IVar="-1" Cut="0.0e+00" cType="1" res="-0.00473398156" rms="0.0e+00" purity="0.0e+00" nType="-99" /><Node pos="r" depth="8" NCoef="0" IVar="12" Cut="1.12790251" cType="1" res="0.0e+00" rms="0.0e+00" purity="0.0e+00" nType="0"><Node pos="l" depth="9" NCoef="0" IVar="-1" Cut="0.0e+00" cType="1" res="-0" rms="0.0e+00" purity="0.0e+00" nType="-99" /><Node pos="r" depth="9" NCoef="0" IVar="-1" Cut="0.0e+00" cType="1" res="0.0292169899" rms="0.0e+00" purity="0.0e+00" nType="-99" /></Node></Node><Node pos="r" depth="7" NCoef="0" IVar="-1" Cut="0.0e+00" cType="1" res="-0.0127172265" rms="0.0e+00" purity="0.0e+00" nType="-99" /></Node></Node><Node pos="r" depth="5" NCoef="0" IVar="8" Cut="102.912819" cType="1" res="0.0e+00" rms="0.0e+00" purity="0.0e+00" nType="0"><Node pos="l" depth="6" NCoef="0" IVar="18" Cut="0.00629737927" cType="1" res="0.0e+00" rms="0.0e+00" purity="0.0e+00" nType="0"><Node pos="l" depth="7" NCoef="0" IVar="-1" Cut="0.0e+00" cType="1" res="-0.124727488" rms="0.0e+00" purity="0.0e+00" nType="-99" /><Node pos="r" depth="7" NCoef="0" IVar="8" Cut="70.6422348" cType="1" res="0.0e+00" rms="0.0e+00" purity="0.0e+00" nType="0"><Node pos="l" depth="8" NCoef="0" IVar="15" Cut="75.8826828" cType="1" res="0.0e+00" rms="0.0e+00" purity="0.0e+00" nType="0"><Node pos="l" depth="9" NCoef="0" IVar="-1" Cut="0.0e+00" cType="1" res="-0.102702491" rms="0.0e+00" purity="0.0e+00" nType="-99" /><Node pos="r" depth="9" NCoef="0" IVar="-1" Cut="0.0e+00" cType="1" res="-0.0347129218" rms="0.0e+00" purity="0.0e+00" nType="-99" /></Node><Node pos="r" depth="8" NCoef="0" IVar="15" Cut="92.1807709" cType="1" res="0.0e+00" rms="0.0e+00" purity="0.0e+00" nType="0"><Node pos="l" depth="9" NCoef="0" IVar="-1" Cut="0.0e+00" cType="1" res="-0.0831510872" rms="0.0e+00" purity="0.0e+00" nType="-99" /><Node pos="r" depth="9" NCoef="0" IVar="-1" Cut="0.0e+00" cType="1" res="-0" rms="0.0e+00" purity="0.0e+00" nType="-99" /></Node></Node></Node><Node pos="r" depth="6" NCoef="0" IVar="11" Cut="2.67023563" cType="1" res="0.0e+00" rms="0.0e+00" purity="0.0e+00" nType="0"><Node pos="l" depth="7" NCoef="0" IVar="-1" Cut="0.0e+00" cType="1" res="-0.061562106" rms="0.0e+00" purity="0.0e+00" nType="-99" /><Node pos="r" depth="7" NCoef="0" IVar="8" Cut="129.596008" cType="1" res="0.0e+00" rms="0.0e+00" purity="0.0e+00" nType="0"><Node pos="l" depth="8" NCoef="0" IVar="12" Cut="1.10935605" cType="1" res="0.0e+00" rms="0.0e+00" purity="0.0e+00" nType="0"><Node pos="l" depth="9" NCoef="0" IVar="-1" Cut="0.0e+00" cType="1" res="-0.0629625246" rms="0.0e+00" purity="0.0e+00" nType="-99" /><Node pos="r" depth="9" NCoef="0" IVar="-1" Cut="0.0e+00" cType="1" res="-0.0319572799" rms="0.0e+00" purity="0.0e+00" nType="-99" /></Node><Node pos="r" depth="8" NCoef="0" IVar="12" Cut="0.967747927" cType="1" res="0.0e+00" rms="0.0e+00" purity="0.0e+00" nType="0"><Node pos="l" depth="9" NCoef="0" IVar="-1" Cut="0.0e+00" cType="1" res="-0.0392432362" rms="0.0e+00" purity="0.0e+00" nType="-99" /><Node pos="r" depth="9" NCoef="0" IVar="-1" Cut="0.0e+00" cType="1" res="-0" rms="0.0e+00" purity="0.0e+00" nType="-99" /></Node></Node></Node></Node></Node><Node pos="r" depth="4" NCoef="0" IVar="11" Cut="2.48224354" cType="1" res="0.0e+00" rms="0.0e+00" purity="0.0e+00" nType="0"><Node pos="l" depth="5" NCoef="0" IVar="8" Cut="104.403702" cType="1" res="0.0e+00" rms="0.0e+00" purity="0.0e+00" nType="0"><Node pos="l" depth="6" NCoef="0" IVar="5" Cut="0.590896428" cType="1" res="0.0e+00" rms="0.0e+00" purity="0.0e+00" nType="0"><Node pos="l" depth="7" NCoef="0" IVar="11" Cut="2.10466552" cType="1" res="0.0e+00" rms="0.0e+00" purity="0.0e+00" nType="0"><Node pos="l" depth="8" NCoef="0" IVar="15" Cut="93.4741898" cType="1" res="0.0e+00" rms="0.0e+00" purity="0.0e+00" nType="0"><Node pos="l" depth="9" NCoef="0" IVar="-1" Cut="0.0e+00" cType="1" res="-0.0937482491" rms="0.0e+00" purity="0.0e+00" nType="-99" /><Node pos="r" depth="9" NCoef="0" IVar="-1" Cut="0.0e+00" cType="1" res="-0.0138314459" rms="0.0e+00" purity="0.0e+00" nType="-99" /></Node><Node pos="r" depth="8" NCoef="0" IVar="12" Cut="2.14070892" cType="1" res="0.0e+00" rms="0.0e+00" purity="0.0e+00" nType="0"><Node pos="l" depth="9" NCoef="0" IVar="-1" Cut="0.0e+00" cType="1" res="-0.0802639946" rms="0.0e+00" purity="0.0e+00" nType="-99" /><Node pos="r" depth="9" NCoef="0" IVar="-1" Cut="0.0e+00" cType="1" res="-0.0481870882" rms="0.0e+00" purity="0.0e+00" nType="-99" /></Node></Node><Node pos="r" depth="7" NCoef="0" IVar="10" Cut="1703.4386" cType="1" res="0.0e+00" rms="0.0e+00" purity="0.0e+00" nType="0"><Node pos="l" depth="8" NCoef="0" IVar="-1" Cut="0.0e+00" cType="1" res="-0.0465672091" rms="0.0e+00" purity="0.0e+00" nType="-99" /><Node pos="r" depth="8" NCoef="0" IVar="-1" Cut="0.0e+00" cType="1" res="-0" rms="0.0e+00" purity="0.0e+00" nType="-99" /></Node></Node><Node pos="r" depth="6" NCoef="0" IVar="11" Cut="2.03854036" cType="1" res="0.0e+00" rms="0.0e+00" purity="0.0e+00" nType="0"><Node pos="l" depth="7" NCoef="0" IVar="-1" Cut="0.0e+00" cType="1" res="-0.0547597818" rms="0.0e+00" purity="0.0e+00" nType="-99" /><Node pos="r" depth="7" NCoef="0" IVar="8" Cut="142.341461" cType="1" res="0.0e+00" rms="0.0e+00" purity="0.0e+00" nType="0"><Node pos="l" depth="8" NCoef="0" IVar="18" Cut="0.00619682763" cType="1" res="0.0e+00" rms="0.0e+00" purity="0.0e+00" nType="0"><Node pos="l" depth="9" NCoef="0" IVar="-1" Cut="0.0e+00" cType="1" res="-0.0698732287" rms="0.0e+00" purity="0.0e+00" nType="-99" /><Node pos="r" depth="9" NCoef="0" IVar="-1" Cut="0.0e+00" cType="1" res="-0.0304854251" rms="0.0e+00" purity="0.0e+00" nType="-99" /></Node><Node pos="r" depth="8" NCoef="0" IVar="5" Cut="0.58626157" cType="1" res="0.0e+00" rms="0.0e+00" purity="0.0e+00" nType="0"><Node pos="l" depth="9" NCoef="0" IVar="-1" Cut="0.0e+00" cType="1" res="-0.00611622119" rms="0.0e+00" purity="0.0e+00" nType="-99" /><Node pos="r" depth="9" NCoef="0" IVar="-1" Cut="0.0e+00" cType="1" res="0.017184414" rms="0.0e+00" purity="0.0e+00" nType="-99" /></Node></Node></Node></Node><Node pos="r" depth="5" NCoef="0" IVar="8" Cut="130.759933" cType="1" res="0.0e+00" rms="0.0e+00" purity="0.0e+00" nType="0"><Node pos="l" depth="6" NCoef="0" IVar="18" Cut="0.00695994776" cType="1" res="0.0e+00" rms="0.0e+00" purity="0.0e+00" nType="0"><Node pos="l" depth="7" NCoef="0" IVar="-1" Cut="0.0e+00" cType="1" res="-0.0592554212" rms="0.0e+00" purity="0.0e+00" nType="-99" /><Node pos="r" depth="7" NCoef="0" IVar="10" Cut="1334.06226" cType="1" res="0.0e+00" rms="0.0e+00" purity="0.0e+00" nType="0"><Node pos="l" depth="8" NCoef="0" IVar="15" Cut="84.9925613" cType="1" res="0.0e+00" rms="0.0e+00" purity="0.0e+00" nType="0"><Node pos="l" depth="9" NCoef="0" IVar="-1" Cut="0.0e+00" cType="1" res="-0.0463077277" rms="0.0e+00" purity="0.0e+00" nType="-99" /><Node pos="r" depth="9" NCoef="0" IVar="-1" Cut="0.0e+00" cType="1" res="0.00336912088" rms="0.0e+00" purity="0.0e+00" nType="-99" /></Node><Node pos="r" depth="8" NCoef="0" IVar="5" Cut="0.614727199" cType="1" res="0.0e+00" rms="0.0e+00" purity="0.0e+00" nType="0"><Node pos="l" depth="9" NCoef="0" IVar="-1" Cut="0.0e+00" cType="1" res="-0.0214985535" rms="0.0e+00" purity="0.0e+00" nType="-99" /><Node pos="r" depth="9" NCoef="0" IVar="-1" Cut="0.0e+00" cType="1" res="0.0219695736" rms="0.0e+00" purity="0.0e+00" nType="-99" /></Node></Node></Node><Node pos="r" depth="6" NCoef="0" IVar="11" Cut="2.86391973" cType="1" res="0.0e+00" rms="0.0e+00" purity="0.0e+00" nType="0"><Node pos="l" depth="7" NCoef="0" IVar="18" Cut="0.00706749456" cType="1" res="0.0e+00" rms="0.0e+00" purity="0.0e+00" nType="0"><Node pos="l" depth="8" NCoef="0" IVar="-1" Cut="0.0e+00" cType="1" res="-0.0355911478" rms="0.0e+00" purity="0.0e+00" nType="-99" /><Node pos="r" depth="8" NCoef="0" IVar="8" Cut="136.93338" cType="1" res="0.0e+00" rms="0.0e+00" purity="0.0e+00" nType="0"><Node pos="l" depth="9" NCoef="0" IVar="-1" Cut="0.0e+00" cType="1" res="-0.00586827798" rms="0.0e+00" purity="0.0e+00" nType="-99" /><Node pos="r" depth="9" NCoef="0" IVar="-1" Cut="0.0e+00" cType="1" res="0.0168384612" rms="0.0e+00" purity="0.0e+00" nType="-99" /></Node></Node><Node pos="r" depth="7" NCoef="0" IVar="8" Cut="159.637939" cType="1" res="0.0e+00" rms="0.0e+00" purity="0.0e+00" nType="0"><Node pos="l" depth="8" NCoef="0" IVar="-1" Cut="0.0e+00" cType="1" res="0.0111041311" rms="0.0e+00" purity="0.0e+00" nType="-99" /><Node pos="r" depth="8" NCoef="0" IVar="-1" Cut="0.0e+00" cType="1" res="0.0344122127" rms="0.0e+00" purity="0.0e+00" nType="-99" /></Node></Node></Node></Node></Node><Node pos="r" depth="3" NCoef="0" IVar="15" Cut="188.478958" cType="1" res="0.0e+00" rms="0.0e+00" purity="0.0e+00" nType="0"><Node pos="l" depth="4" NCoef="0" IVar="15" Cut="159.085037" cType="1" res="0.0e+00" rms="0.0e+00" purity="0.0e+00" nType="0"><Node pos="l" depth="5" NCoef="0" IVar="-1" Cut="0.0e+00" cType="1" res="0.0497748218" rms="0.0e+00" purity="0.0e+00" nType="-99" /><Node pos="r" depth="5" NCoef="0" IVar="-1" Cut="0.0e+00" cType="1" res="0.088346079" rms="0.0e+00" purity="0.0e+00" nType="-99" /></Node><Node pos="r" depth="4" NCoef="0" IVar="15" Cut="259.715179" cType="1" res="0.0e+00" rms="0.0e+00" purity="0.0e+00" nType="0"><Node pos="l" depth="5" NCoef="0" IVar="-1" Cut="0.0e+00" cType="1" res="0.135487393" rms="0.0e+00" purity="0.0e+00" nType="-99" /><Node pos="r" depth="5" NCoef="0" IVar="-1" Cut="0.0e+00" cType="1" res="0.185687289" rms="0.0e+00" purity="0.0e+00" nType="-99" /></Node></Node></Node><Node pos="r" depth="2" NCoef="0" IVar="15" Cut="217.947586" cType="1" res="0.0e+00" rms="0.0e+00" purity="0.0e+00" nType="0"><Node pos="l" depth="3" NCoef="0" IVar="11" Cut="2.66113329" cType="1" res="0.0e+00" rms="0.0e+00" purity="0.0e+00" nType="0"><Node pos="l" depth="4" NCoef="0" IVar="5" Cut="0.875213027" cType="1" res="0.0e+00" rms="0.0e+00" purity="0.0e+00" nType="0"><Node pos="l" depth="5" NCoef="0" IVar="10" Cut="1321.73181" cType="1" res="0.0e+00" rms="0.0e+00" purity="0.0e+00" nType="0"><Node pos="l" depth="6" NCoef="0" IVar="-1" Cut="0.0e+00" cType="1" res="-0" rms="0.0e+00" purity="0.0e+00" nType="-99" /><Node pos="r" depth="6" NCoef="0" IVar="-1" Cut="0.0e+00" cType="1" res="0.0403870717" rms="0.0e+00" purity="0.0e+00" nType="-99" /></Node><Node pos="r" depth="5" NCoef="0" IVar="-1" Cut="0.0e+00" cType="1" res="0.0815381929" rms="0.0e+00" purity="0.0e+00" nType="-99" /></Node><Node pos="r" depth="4" NCoef="0" IVar="15" Cut="134.294769" cType="1" res="0.0e+00" rms="0.0e+00" purity="0.0e+00" nType="0"><Node pos="l" depth="5" NCoef="0" IVar="15" Cut="38.6176033" cType="1" res="0.0e+00" rms="0.0e+00" purity="0.0e+00" nType="0"><Node pos="l" depth="6" NCoef="0" IVar="5" Cut="0.904499054" cType="1" res="0.0e+00" rms="0.0e+00" purity="0.0e+00" nType="0"><Node pos="l" depth="7" NCoef="0" IVar="-1" Cut="0.0e+00" cType="1" res="0.0491865426" rms="0.0e+00" purity="0.0e+00" nType="-99" /><Node pos="r" depth="7" NCoef="0" IVar="-1" Cut="0.0e+00" cType="1" res="0.120350748" rms="0.0e+00" purity="0.0e+00" nType="-99" /></Node><Node pos="r" depth="6" NCoef="0" IVar="-1" Cut="0.0e+00" cType="1" res="0.0315848105" rms="0.0e+00" purity="0.0e+00" nType="-99" /></Node><Node pos="r" depth="5" NCoef="0" IVar="-1" Cut="0.0e+00" cType="1" res="0.101854689" rms="0.0e+00" purity="0.0e+00" nType="-99" /></Node></Node><Node pos="r" depth="3" NCoef="0" IVar="15" Cut="287.703857" cType="1" res="0.0e+00" rms="0.0e+00" purity="0.0e+00" nType="0"><Node pos="l" depth="4" NCoef="0" IVar="-1" Cut="0.0e+00" cType="1" res="0.150071487" rms="0.0e+00" purity="0.0e+00" nType="-99" /><Node pos="r" depth="4" NCoef="0" IVar="-1" Cut="0.0e+00" cType="1" res="0.204395786" rms="0.0e+00" purity="0.0e+00" nType="-99" /></Node></Node></Node><Node pos="r" depth="1" NCoef="0" IVar="8" Cut="290.162903" cType="1" res="0.0e+00" rms="0.0e+00" purity="0.0e+00" nType="0"><Node pos="l" depth="2" NCoef="0" IVar="15" Cut="197.233582" cType="1" res="0.0e+00" rms="0.0e+00" purity="0.0e+00" nType="0"><Node pos="l" depth="3" NCoef="0" IVar="12" Cut="2.30174327" cType="1" res="0.0e+00" rms="0.0e+00" purity="0.0e+00" nType="0"><Node pos="l" depth="4" NCoef="0" IVar="11" Cut="2.69633865" cType="1" res="0.0e+00" rms="0.0e+00" purity="0.0e+00" nType="0"><Node pos="l" depth="5" NCoef="0" IVar="-1" Cut="0.0e+00" cType="1" res="0.00164112868" rms="0.0e+00" purity="0.0e+00" nType="-99" /><Node pos="r" depth="5" NCoef="0" IVar="8" Cut="211.733856" cType="1" res="0.0e+00" rms="0.0e+00" purity="0.0e+00" nType="0"><Node pos="l" depth="6" NCoef="0" IVar="18" Cut="0.00543556688" cType="1" res="0.0e+00" rms="0.0e+00" purity="0.0e+00" nType="0"><Node pos="l" depth="7" NCoef="0" IVar="-1" Cut="0.0e+00" cType="1" res="-0" rms="0.0e+00" purity="0.0e+00" nType="-99" /><Node pos="r" depth="7" NCoef="0" IVar="-1" Cut="0.0e+00" cType="1" res="0.0487711355" rms="0.0e+00" purity="0.0e+00" nType="-99" /></Node><Node pos="r" depth="6" NCoef="0" IVar="-1" Cut="0.0e+00" cType="1" res="0.0886163861" rms="0.0e+00" purity="0.0e+00" nType="-99" /></Node></Node><Node pos="r" depth="4" NCoef="0" IVar="11" Cut="2.62790895" cType="1" res="0.0e+00" rms="0.0e+00" purity="0.0e+00" nType="0"><Node pos="l" depth="5" NCoef="0" IVar="-1" Cut="0.0e+00" cType="1" res="0.0552772693" rms="0.0e+00" purity="0.0e+00" nType="-99" /><Node pos="r" depth="5" NCoef="0" IVar="8" Cut="218.397812" cType="1" res="0.0e+00" rms="0.0e+00" purity="0.0e+00" nType="0"><Node pos="l" depth="6" NCoef="0" IVar="18" Cut="0.00690425467" cType="1" res="0.0e+00" rms="0.0e+00" purity="0.0e+00" nType="0"><Node pos="l" depth="7" NCoef="0" IVar="-1" Cut="0.0e+00" cType="1" res="0.0384709165" rms="0.0e+00" purity="0.0e+00" nType="-99" /><Node pos="r" depth="7" NCoef="0" IVar="5" Cut="0.630691648" cType="1" res="0.0e+00" rms="0.0e+00" purity="0.0e+00" nType="0"><Node pos="l" depth="8" NCoef="0" IVar="-1" Cut="0.0e+00" cType="1" res="0.0630224645" rms="0.0e+00" purity="0.0e+00" nType="-99" /><Node pos="r" depth="8" NCoef="0" IVar="-1" Cut="0.0e+00" cType="1" res="0.0877846926" rms="0.0e+00" purity="0.0e+00" nType="-99" /></Node></Node><Node pos="r" depth="6" NCoef="0" IVar="-1" Cut="0.0e+00" cType="1" res="0.107142173" rms="0.0e+00" purity="0.0e+00" nType="-99" /></Node></Node></Node><Node pos="r" depth="3" NCoef="0" IVar="-1" Cut="0.0e+00" cType="1" res="0.18693912" rms="0.0e+00" purity="0.0e+00" nType="-99" /></Node><Node pos="r" depth="2" NCoef="0" IVar="-1" Cut="0.0e+00" cType="1" res="0.182073072" rms="0.0e+00" purity="0.0e+00" nType="-99" /></Node></Node></BinaryTree><BinaryTree type="DecisionTree" boostWeight="1.0e+00" itree="1"><Node pos="s" depth="0" NCoef="0" IVar="4" Cut="1.16834605" cType="1" res="0.0e+00" rms="0.0e+00" purity="0.0e+00" nType="0"><Node pos="l" depth="1" NCoef="0" IVar="4" Cut="0.789599776" cType="1" res="0.0e+00" rms="0.0e+00" purity="0.0e+00" nType="0"><Node pos="l" depth="2" NCoef="0" IVar="8" Cut="104.403702" cType="1" res="0.0e+00" rms="0.0e+00" purity="0.0e+00" nType="0"><Node pos="l" depth="3" NCoef="0" IVar="15" Cut="86.1193619" cType="1" res="0.0e+00" rms="0.0e+00" purity="0.0e+00" nType="0"><Node pos="l" depth="4" NCoef="0" IVar="13" Cut="-0.145148322" cType="1" res="0.0e+00" rms="0.0e+00" purity="0.0e+00" nType="0"><Node pos="l" depth="5" NCoef="0" IVar="8" Cut="76.8242188" cType="1" res="0.0e+00" rms="0.0e+00" purity="0.0e+00" nType="0"><Node pos="l" depth="6" NCoef="0" IVar="10" Cut="2075.62402" cType="1" res="0.0e+00" rms="0.0e+00" purity="0.0e+00" nType="0"><Node pos="l" depth="7" NCoef="0" IVar="-1" Cut="0.0e+00" cType="1" res="-0.107544884" rms="0.0e+00" purity="0.0e+00" nType="-99" /><Node pos="r" depth="7" NCoef="0" IVar="-1" Cut="0.0e+00" cType="1" res="-0.0848145634" rms="0.0e+00" purity="0.0e+00" nType="-99" /></Node><Node pos="r" depth="6" NCoef="0" IVar="-1" Cut="0.0e+00" cType="1" res="-0.0831159726" rms="0.0e+00" purity="0.0e+00" nType="-99" /></Node><Node pos="r" depth="5" NCoef="0" IVar="18" Cut="0.0071244454" cType="1" res="0.0e+00" rms="0.0e+00" purity="0.0e+00" nType="0"><Node pos="l" depth="6" NCoef="0" IVar="-1" Cut="0.0e+00" cType="1" res="-0.0941744819" rms="0.0e+00" purity="0.0e+00" nType="-99" /><Node pos="r" depth="6" NCoef="0" IVar="16" Cut="2.31325173" cType="1" res="0.0e+00" rms="0.0e+00" purity="0.0e+00" nType="0"><Node pos="l" depth="7" NCoef="0" IVar="13" Cut="0.248976767" cType="1" res="0.0e+00" rms="0.0e+00" purity="0.0e+00" nType="0"><Node pos="l" depth="8" NCoef="0" IVar="-1" Cut="0.0e+00" cType="1" res="-0.0814868733" rms="0.0e+00" purity="0.0e+00" nType="-99" /><Node pos="r" depth="8" NCoef="0" IVar="-1" Cut="0.0e+00" cType="1" res="-0.0578795932" rms="0.0e+00" purity="0.0e+00" nType="-99" /></Node><Node pos="r" depth="7" NCoef="0" IVar="13" Cut="0.394056082" cType="1" res="0.0e+00" rms="0.0e+00" purity="0.0e+00" nType="0"><Node pos="l" depth="8" NCoef="0" IVar="1" Cut="1.04554105" cType="1" res="0.0e+00" rms="0.0e+00" purity="0.0e+00" nType="0"><Node pos="l" depth="9" NCoef="0" IVar="-1" Cut="0.0e+00" cType="1" res="-0.0594570935" rms="0.0e+00" purity="0.0e+00" nType="-99" /><Node pos="r" depth="9" NCoef="0" IVar="-1" Cut="0.0e+00" cType="1" res="-0.0761453956" rms="0.0e+00" purity="0.0e+00" nType="-99" /></Node><Node pos="r" depth="8" NCoef="0" IVar="-1" Cut="0.0e+00" cType="1" res="-0" rms="0.0e+00" purity="0.0e+00" nType="-99" /></Node></Node></Node></Node><Node pos="r" depth="4" NCoef="0" IVar="15" Cut="106.585236" cType="1" res="0.0e+00" rms="0.0e+00" purity="0.0e+00" nType="0"><Node pos="l" depth="5" NCoef="0" IVar="-1" Cut="0.0e+00" cType="1" res="-0.0393714644" rms="0.0e+00" purity="0.0e+00" nType="-99" /><Node pos="r" depth="5" NCoef="0" IVar="-1" Cut="0.0e+00" cType="1" res="0.00109611941" rms="0.0e+00" purity="0.0e+00" nType="-99" /></Node></Node><Node pos="r" depth="3" NCoef="0" IVar="5" Cut="0.614727199" cType="1" res="0.0e+00" rms="0.0e+00" purity="0.0e+00" nType="0"><Node pos="l" depth="4" NCoef="0" IVar="13" Cut="-0.293962926" cType="1" res="0.0e+00" rms="0.0e+00" purity="0.0e+00" nType="0"><Node pos="l" depth="5" NCoef="0" IVar="8" Cut="183.995911" cType="1" res="0.0e+00" rms="0.0e+00" purity="0.0e+00" nType="0"><Node pos="l" depth="6" NCoef="0" IVar="-1" Cut="0.0e+00" cType="1" res="-0.0527372099" rms="0.0e+00" purity="0.0e+00" nType="-99" /><Node pos="r" depth="6" NCoef="0" IVar="-1" Cut="0.0e+00" cType="1" res="0.0141156008" rms="0.0e+00" purity="0.0e+00" nType="-99" /></Node><Node pos="r" depth="5" NCoef="0" IVar="12" Cut="2.37404084" cType="1" res="0.0e+00" rms="0.0e+00" purity="0.0e+00" nType="0"><Node pos="l" depth="6" NCoef="0" IVar="-1" Cut="0.0e+00" cType="1" res="-0.0387970805" rms="0.0e+00" purity="0.0e+00" nType="-99" /><Node pos="r" depth="6" NCoef="0" IVar="16" Cut="1.19150639" cType="1" res="0.0e+00" rms="0.0e+00" purity="0.0e+00" nType="0"><Node pos="l" depth="7" NCoef="0" IVar="-1" Cut="0.0e+00" cType="1" res="-0.0269909073" rms="0.0e+00" purity="0.0e+00" nType="-99" /><Node pos="r" depth="7" NCoef="0" IVar="8" Cut="134.327332" cType="1" res="0.0e+00" rms="0.0e+00" purity="0.0e+00" nType="0"><Node pos="l" depth="8" NCoef="0" IVar="13" Cut="-0.16052632" cType="1" res="0.0e+00" rms="0.0e+00" purity="0.0e+00" nType="0"><Node pos="l" depth="9" NCoef="0" IVar="-1" Cut="0.0e+00" cType="1" res="-0.0321370289" rms="0.0e+00" purity="0.0e+00" nType="-99" /><Node pos="r" depth="9" NCoef="0" IVar="-1" Cut="0.0e+00" cType="1" res="-0.00285820966" rms="0.0e+00" purity="0.0e+00" nType="-99" /></Node><Node pos="r" depth="8" NCoef="0" IVar="18" Cut="0.00855345558" cType="1" res="0.0e+00" rms="0.0e+00" purity="0.0e+00" nType="0"><Node pos="l" depth="9" NCoef="0" IVar="-1" Cut="0.0e+00" cType="1" res="-0.00498020602" rms="0.0e+00" purity="0.0e+00" nType="-99" /><Node pos="r" depth="9" NCoef="0" IVar="-1" Cut="0.0e+00" cType="1" res="0.0212927759" rms="0.0e+00" purity="0.0e+00" nType="-99" /></Node></Node></Node></Node></Node><Node pos="r" depth="4" NCoef="0" IVar="-1" Cut="0.0e+00" cType="1" res="-0" rms="0.0e+00" purity="0.0e+00" nType="-99" /></Node></Node><Node pos="r" depth="2" NCoef="0" IVar="8" Cut="157.843613" cType="1" res="0.0e+00" rms="0.0e+00" purity="0.0e+00" nType="0"><Node pos="l" depth="3" NCoef="0" IVar="15" Cut="113.322861" cType="1" res="0.0e+00" rms="0.0e+00" purity="0.0e+00" nType="0"><Node pos="l" depth="4" NCoef="0" IVar="13" Cut="0.574180365" cType="1" res="0.0e+00" rms="0.0e+00" purity="0.0e+00" nType="0"><Node pos="l" depth="5" NCoef="0" IVar="8" Cut="116.151642" cType="1" res="0.0e+00" rms="0.0e+00" purity="0.0e+00" nType="0"><Node pos="l" depth="6" NCoef="0" IVar="10" Cut="1278.10046" cType="1" res="0.0e+00" rms="0.0e+00" purity="0.0e+00" nType="0"><Node pos="l" depth="7" NCoef="0" IVar="8" Cut="89.5188599" cType="1" res="0.0e+00" rms="0.0e+00" purity="0.0e+00" nType="0"><Node pos="l" depth="8" NCoef="0" IVar="13" Cut="0.417863607" cType="1" res="0.0e+00" rms="0.0e+00" purity="0.0e+00" nType="0"><Node pos="l" depth="9" NCoef="0" IVar="-1" Cut="0.0e+00" cType="1" res="-0.0741417482" rms="0.0e+00" purity="0.0e+00" nType="-99" /><Node pos="r" depth="9" NCoef="0" IVar="-1" Cut="0.0e+00" cType="1" res="-0.0410349853" rms="0.0e+00" purity="0.0e+00" nType="-99" /></Node><Node pos="r" depth="8" NCoef="0" IVar="-1" Cut="0.0e+00" cType="1" res="-0.0494016148" rms="0.0e+00" purity="0.0e+00" nType="-99" /></Node><Node pos="r" depth="7" NCoef="0" IVar="4" Cut="1.01416016" cType="1" res="0.0e+00" rms="0.0e+00" purity="0.0e+00" nType="0"><Node pos="l" depth="8" NCoef="0" IVar="13" Cut="0.127617463" cType="1" res="0.0e+00" rms="0.0e+00" purity="0.0e+00" nType="0"><Node pos="l" depth="9" NCoef="0" IVar="-1" Cut="0.0e+00" cType="1" res="-0.0527661443" rms="0.0e+00" purity="0.0e+00" nType="-99" /><Node pos="r" depth="9" NCoef="0" IVar="-1" Cut="0.0e+00" cType="1" res="-0.0377069116" rms="0.0e+00" purity="0.0e+00" nType="-99" /></Node><Node pos="r" depth="8" NCoef="0" IVar="15" Cut="23.4113407" cType="1" res="0.0e+00" rms="0.0e+00" purity="0.0e+00" nType="0"><Node pos="l" depth="9" NCoef="0" IVar="-1" Cut="0.0e+00" cType="1" res="-0" rms="0.0e+00" purity="0.0e+00" nType="-99" /><Node pos="r" depth="9" NCoef="0" IVar="-1" Cut="0.0e+00" cType="1" res="-0.0167069715" rms="0.0e+00" purity="0.0e+00" nType="-99" /></Node></Node></Node><Node pos="r" depth="6" NCoef="0" IVar="16" Cut="0.168031693" cType="1" res="0.0e+00" rms="0.0e+00" purity="0.0e+00" nType="0"><Node pos="l" depth="7" NCoef="0" IVar="13" Cut="0.0407361351" cType="1" res="0.0e+00" rms="0.0e+00" purity="0.0e+00" nType="0"><Node pos="l" depth="8" NCoef="0" IVar="-1" Cut="0.0e+00" cType="1" res="-0" rms="0.0e+00" purity="0.0e+00" nType="-99" /><Node pos="r" depth="8" NCoef="0" IVar="-1" Cut="0.0e+00" cType="1" res="0.0262632724" rms="0.0e+00" purity="0.0e+00" nType="-99" /></Node><Node pos="r" depth="7" NCoef="0" IVar="13" Cut="-0.20791322" cType="1" res="0.0e+00" rms="0.0e+00" purity="0.0e+00" nType="0"><Node pos="l" depth="8" NCoef="0" IVar="-1" Cut="0.0e+00" cType="1" res="-0.0303093661" rms="0.0e+00" purity="0.0e+00" nType="-99" /><Node pos="r" depth="8" NCoef="0" IVar="18" Cut="0.00706749456" cType="1" res="0.0e+00" rms="0.0e+00" purity="0.0e+00" nType="0"><Node pos="l" depth="9" NCoef="0" IVar="-1" Cut="0.0e+00" cType="1" res="-0.0243090577" rms="0.0e+00" purity="0.0e+00" nType="-99" /><Node pos="r" depth="9" NCoef="0" IVar="-1" Cut="0.0e+00" cType="1" res="0.00658788765" rms="0.0e+00" purity="0.0e+00" nType="-99" /></Node></Node></Node></Node><Node pos="r" depth="5" NCoef="0" IVar="16" Cut="1.65073133" cType="1" res="0.0e+00" rms="0.0e+00" purity="0.0e+00" nType="0"><Node pos="l" depth="6" NCoef="0" IVar="15" Cut="46.2988701" cType="1" res="0.0e+00" rms="0.0e+00" purity="0.0e+00" nType="0"><Node pos="l" depth="7" NCoef="0" IVar="-1" Cut="0.0e+00" cType="1" res="0.0275880173" rms="0.0e+00" purity="0.0e+00" nType="-99" /><Node pos="r" depth="7" NCoef="0" IVar="8" Cut="63.3395042" cType="1" res="0.0e+00" rms="0.0e+00" purity="0.0e+00" nType="0"><Node pos="l" depth="8" NCoef="0" IVar="18" Cut="0.00646314351" cType="1" res="0.0e+00" rms="0.0e+00" purity="0.0e+00" nType="0"><Node pos="l" depth="9" NCoef="0" IVar="-1" Cut="0.0e+00" cType="1" res="-0.0373822562" rms="0.0e+00" purity="0.0e+00" nType="-99" /><Node pos="r" depth="9" NCoef="0" IVar="-1" Cut="0.0e+00" cType="1" res="-0.00387792545" rms="0.0e+00" purity="0.0e+00" nType="-99" /></Node><Node pos="r" depth="8" NCoef="0" IVar="4" Cut="0.944202125" cType="1" res="0.0e+00" rms="0.0e+00" purity="0.0e+00" nType="0"><Node pos="l" depth="9" NCoef="0" IVar="-1" Cut="0.0e+00" cType="1" res="-0" rms="0.0e+00" purity="0.0e+00" nType="-99" /><Node pos="r" depth="9" NCoef="0" IVar="-1" Cut="0.0e+00" cType="1" res="0.0171438735" rms="0.0e+00" purity="0.0e+00" nType="-99" /></Node></Node></Node><Node pos="r" depth="6" NCoef="0" IVar="-1" Cut="0.0e+00" cType="1" res="0.0765754357" rms="0.0e+00" purity="0.0e+00" nType="-99" /></Node></Node><Node pos="r" depth="4" NCoef="0" IVar="15" Cut="139.352097" cType="1" res="0.0e+00" rms="0.0e+00" purity="0.0e+00" nType="0"><Node pos="l" depth="5" NCoef="0" IVar="-1" Cut="0.0e+00" cType="1" res="0.0183904991" rms="0.0e+00" purity="0.0e+00" nType="-99" /><Node pos="r" depth="5" NCoef="0" IVar="-1" Cut="0.0e+00" cType="1" res="0.0702243075" rms="0.0e+00" purity="0.0e+00" nType="-99" /></Node></Node><Node pos="r" depth="3" NCoef="0" IVar="5" Cut="0.614727199" cType="1" res="0.0e+00" rms="0.0e+00" purity="0.0e+00" nType="0"><Node pos="l" depth="4" NCoef="0" IVar="-1" Cut="0.0e+00" cType="1" res="0.0244213548" rms="0.0e+00" purity="0.0e+00" nType="-99" /><Node pos="r" depth="4" NCoef="0" IVar="-1" Cut="0.0e+00" cType="1" res="0.0579360537" rms="0.0e+00" purity="0.0e+00" nType="-99" /></Node></Node></Node><Node pos="r" depth="1" NCoef="0" IVar="4" Cut="1.80015051" cType="1" res="0.0e+00" rms="0.0e+00" purity="0.0e+00" nType="0"><Node pos="l" depth="2" NCoef="0" IVar="8" Cut="229.408142" cType="1" res="0.0e+00" rms="0.0e+00" purity="0.0e+00" nType="0"><Node pos="l" depth="3" NCoef="0" IVar="15" Cut="172.637589" cType="1" res="0.0e+00" rms="0.0e+00" purity="0.0e+00" nType="0"><Node pos="l" depth="4" NCoef="0" IVar="15" Cut="38.6176033" cType="1" res="0.0e+00" rms="0.0e+00" purity="0.0e+00" nType="0"><Node pos="l" depth="5" NCoef="0" IVar="12" Cut="1.72268856" cType="1" res="0.0e+00" rms="0.0e+00" purity="0.0e+00" nType="0"><Node pos="l" depth="6" NCoef="0" IVar="10" Cut="1454.30347" cType="1" res="0.0e+00" rms="0.0e+00" purity="0.0e+00" nType="0"><Node pos="l" depth="7" NCoef="0" IVar="8" Cut="159.637939" cType="1" res="0.0e+00" rms="0.0e+00" purity="0.0e+00" nType="0"><Node pos="l" depth="8" NCoef="0" IVar="-1" Cut="0.0e+00" cType="1" res="-0" rms="0.0e+00" purity="0.0e+00" nType="-99" /><Node pos="r" depth="8" NCoef="0" IVar="-1" Cut="0.0e+00" cType="1" res="0.0202393886" rms="0.0e+00" purity="0.0e+00" nType="-99" /></Node><Node pos="r" depth="7" NCoef="0" IVar="-1" Cut="0.0e+00" cType="1" res="0.0341902748" rms="0.0e+00" purity="0.0e+00" nType="-99" /></Node><Node pos="r" depth="6" NCoef="0" IVar="4" Cut="1.49891031" cType="1" res="0.0e+00" rms="0.0e+00" purity="0.0e+00" nType="0"><Node pos="l" depth="7" NCoef="0" IVar="13" Cut="0.467846155" cType="1" res="0.0e+00" rms="0.0e+00" purity="0.0e+00" nType="0"><Node pos="l" depth="8" NCoef="0" IVar="18" Cut="0.00575578026" cType="1" res="0.0e+00" rms="0.0e+00" purity="0.0e+00" nType="0"><Node pos="l" depth="9" NCoef="0" IVar="-1" Cut="0.0e+00" cType="1" res="-0" rms="0.0e+00" purity="0.0e+00" nType="-99" /><Node pos="r" depth="9" NCoef="0" IVar="-1" Cut="0.0e+00" cType="1" res="0.0584329516" rms="0.0e+00" purity="0.0e+00" nType="-99" /></Node><Node pos="r" depth="8" NCoef="0" IVar="-1" Cut="0.0e+00" cType="1" res="0.0933899358" rms="0.0e+00" purity="0.0e+00" nType="-99" /></Node><Node pos="r" depth="7" NCoef="0" IVar="-1" Cut="0.0e+00" cType="1" res="0.0910133272" rms="0.0e+00" purity="0.0e+00" nType="-99" /></Node></Node><Node pos="r" depth="5" NCoef="0" IVar="12" Cut="2.36593962" cType="1" res="0.0e+00" rms="0.0e+00" purity="0.0e+00" nType="0"><Node pos="l" depth="6" NCoef="0" IVar="15" Cut="144.620621" cType="1" res="0.0e+00" rms="0.0e+00" purity="0.0e+00" nType="0"><Node pos="l" depth="7" NCoef="0" IVar="16" Cut="0.30446893" cType="1" res="0.0e+00" rms="0.0e+00" purity="0.0e+00" nType="0"><Node pos="l" depth="8" NCoef="0" IVar="4" Cut="1.4083612" cType="1" res="0.0e+00" rms="0.0e+00" purity="0.0e+00" nType="0"><Node pos="l" depth="9" NCoef="0" IVar="-1" Cut="0.0e+00" cType="1" res="-0" rms="0.0e+00" purity="0.0e+00" nType="-99" /><Node pos="r" depth="9" NCoef="0" IVar="-1" Cut="0.0e+00" cType="1" res="0.0344278887" rms="0.0e+00" purity="0.0e+00" nType="-99" /></Node><Node pos="r" depth="8" NCoef="0" IVar="8" Cut="186.375534" cType="1" res="0.0e+00" rms="0.0e+00" purity="0.0e+00" nType="0"><Node pos="l" depth="9" NCoef="0" IVar="-1" Cut="0.0e+00" cType="1" res="-0.00553085282" rms="0.0e+00" purity="0.0e+00" nType="-99" /><Node pos="r" depth="9" NCoef="0" IVar="-1" Cut="0.0e+00" cType="1" res="0.0184051897" rms="0.0e+00" purity="0.0e+00" nType="-99" /></Node></Node><Node pos="r" depth="7" NCoef="0" IVar="-1" Cut="0.0e+00" cType="1" res="0.0550979003" rms="0.0e+00" purity="0.0e+00" nType="-99" /></Node><Node pos="r" depth="6" NCoef="0" IVar="16" Cut="0.178360447" cType="1" res="0.0e+00" rms="0.0e+00" purity="0.0e+00" nType="0"><Node pos="l" depth="7" NCoef="0" IVar="-1" Cut="0.0e+00" cType="1" res="0.0726710185" rms="0.0e+00" purity="0.0e+00" nType="-99" /><Node pos="r" depth="7" NCoef="0" IVar="-1" Cut="0.0e+00" cType="1" res="0.0383231528" rms="0.0e+00" purity="0.0e+00" nType="-99" /></Node></Node></Node><Node pos="r" depth="4" NCoef="0" IVar="15" Cut="217.947586" cType="1" res="0.0e+00" rms="0.0e+00" purity="0.0e+00" nType="0"><Node pos="l" depth="5" NCoef="0" IVar="-1" Cut="0.0e+00" cType="1" res="0.0942343622" rms="0.0e+00" purity="0.0e+00" nType="-99" /><Node pos="r" depth="5" NCoef="0" IVar="-1" Cut="0.0e+00" cType="1" res="0.133864164" rms="0.0e+00" purity="0.0e+00" nType="-99" /></Node></Node><Node pos="r" depth="3" NCoef="0" IVar="5" Cut="0.569886088" cType="1" res="0.0e+00" rms="0.0e+00" purity="0.0e+00" nType="0"><Node pos="l" depth="4" NCoef="0" IVar="-1" Cut="0.0e+00" cType="1" res="0.0781608894" rms="0.0e+00" purity="0.0e+00" nType="-99" /><Node pos="r" depth="4" NCoef="0" IVar="-1" Cut="0.0e+00" cType="1" res="0.114346437" rms="0.0e+00" purity="0.0e+00" nType="-99" /></Node></Node><Node pos="r" depth="2" NCoef="0" IVar="8" Cut="452.212006" cType="1" res="0.0e+00" rms="0.0e+00" purity="0.0e+00" nType="0"><Node pos="l" depth="3" NCoef="0" IVar="15" Cut="429.412659" cType="1" res="0.0e+00" rms="0.0e+00" purity="0.0e+00" nType="0"><Node pos="l" depth="4" NCoef="0" IVar="15" Cut="243.473953" cType="1" res="0.0e+00" rms="0.0e+00" purity="0.0e+00" nType="0"><Node pos="l" depth="5" NCoef="0" IVar="8" Cut="329.154144" cType="1" res="0.0e+00" rms="0.0e+00" purity="0.0e+00" nType="0"><Node pos="l" depth="6" NCoef="0" IVar="-1" Cut="0.0e+00" cType="1" res="0.116601452" rms="0.0e+00" purity="0.0e+00" nType="-99" /><Node pos="r" depth="6" NCoef="0" IVar="-1" Cut="0.0e+00" cType="1" res="0.150733724" rms="0.0e+00" purity="0.0e+00" nType="-99" /></Node><Node pos="r" depth="5" NCoef="0" IVar="-1" Cut="0.0e+00" cType="1" res="0.157693535" rms="0.0e+00" purity="0.0e+00" nType="-99" /></Node><Node pos="r" depth="4" NCoef="0" IVar="-1" Cut="0.0e+00" cType="1" res="0.193610281" rms="0.0e+00" purity="0.0e+00" nType="-99" /></Node><Node pos="r" depth="3" NCoef="0" IVar="-1" Cut="0.0e+00" cType="1" res="0.190886796" rms="0.0e+00" purity="0.0e+00" nType="-99" /></Node></Node></Node></BinaryTree><BinaryTree type="DecisionTree" boostWeight="1.0e+00" itree="2"><Node pos="s" depth="0" NCoef="0" IVar="8" Cut="177.305634" cType="1" res="0.0e+00" rms="0.0e+00" purity="0.0e+00" nType="0"><Node pos="l" depth="1" NCoef="0" IVar="15" Cut="132.009293" cType="1" res="0.0e+00" rms="0.0e+00" purity="0.0e+00" nType="0"><Node pos="l" depth="2" NCoef="0" IVar="8" Cut="109.125954" cType="1" res="0.0e+00" rms="0.0e+00" purity="0.0e+00" nType="0"><Node pos="l" depth="3" NCoef="0" IVar="19" Cut="0.0263462644" cType="1" res="0.0e+00" rms="0.0e+00" purity="0.0e+00" nType="0"><Node pos="l" depth="4" NCoef="0" IVar="8" Cut="79.8945007" cType="1" res="0.0e+00" rms="0.0e+00" purity="0.0e+00" nType="0"><Node pos="l" depth="5" NCoef="0" IVar="5" Cut="0.558318317" cType="1" res="0.0e+00" rms="0.0e+00" purity="0.0e+00" nType="0"><Node pos="l" depth="6" NCoef="0" IVar="15" Cut="81.7207489" cType="1" res="0.0e+00" rms="0.0e+00" purity="0.0e+00" nType="0"><Node pos="l" depth="7" NCoef="0" IVar="4" Cut="1.00237751" cType="1" res="0.0e+00" rms="0.0e+00" purity="0.0e+00" nType="0"><Node pos="l" depth="8" NCoef="0" IVar="10" Cut="2131.82349" cType="1" res="0.0e+00" rms="0.0e+00" purity="0.0e+00" nType="0"><Node pos="l" depth="9" NCoef="0" IVar="-1" Cut="0.0e+00" cType="1" res="-0.0805116147" rms="0.0e+00" purity="0.0e+00" nType="-99" /><Node pos="r" depth="9" NCoef="0" IVar="-1" Cut="0.0e+00" cType="1" res="-0.0594481602" rms="0.0e+00" purity="0.0e+00" nType="-99" /></Node><Node pos="r" depth="8" NCoef="0" IVar="5" Cut="0.314218402" cType="1" res="0.0e+00" rms="0.0e+00" purity="0.0e+00" nType="0"><Node pos="l" depth="9" NCoef="0" IVar="-1" Cut="0.0e+00" cType="1" res="-0.0207920205" rms="0.0e+00" purity="0.0e+00" nType="-99" /><Node pos="r" depth="9" NCoef="0" IVar="-1" Cut="0.0e+00" cType="1" res="0.0146392789" rms="0.0e+00" purity="0.0e+00" nType="-99" /></Node></Node><Node pos="r" depth="7" NCoef="0" IVar="16" Cut="0.30446893" cType="1" res="0.0e+00" rms="0.0e+00" purity="0.0e+00" nType="0"><Node pos="l" depth="8" NCoef="0" IVar="10" Cut="1233.57703" cType="1" res="0.0e+00" rms="0.0e+00" purity="0.0e+00" nType="0"><Node pos="l" depth="9" NCoef="0" IVar="-1" Cut="0.0e+00" cType="1" res="0.0151329273" rms="0.0e+00" purity="0.0e+00" nType="-99" /><Node pos="r" depth="9" NCoef="0" IVar="-1" Cut="0.0e+00" cType="1" res="-0.00495952694" rms="0.0e+00" purity="0.0e+00" nType="-99" /></Node><Node pos="r" depth="8" NCoef="0" IVar="10" Cut="1296.96863" cType="1" res="0.0e+00" rms="0.0e+00" purity="0.0e+00" nType="0"><Node pos="l" depth="9" NCoef="0" IVar="-1" Cut="0.0e+00" cType="1" res="-0.0453743823" rms="0.0e+00" purity="0.0e+00" nType="-99" /><Node pos="r" depth="9" NCoef="0" IVar="-1" Cut="0.0e+00" cType="1" res="-0.0148512879" rms="0.0e+00" purity="0.0e+00" nType="-99" /></Node></Node></Node><Node pos="r" depth="6" NCoef="0" IVar="5" Cut="0.647975206" cType="1" res="0.0e+00" rms="0.0e+00" purity="0.0e+00" nType="0"><Node pos="l" depth="7" NCoef="0" IVar="4" Cut="0.88738668" cType="1" res="0.0e+00" rms="0.0e+00" purity="0.0e+00" nType="0"><Node pos="l" depth="8" NCoef="0" IVar="10" Cut="1207.9834" cType="1" res="0.0e+00" rms="0.0e+00" purity="0.0e+00" nType="0"><Node pos="l" depth="9" NCoef="0" IVar="-1" Cut="0.0e+00" cType="1" res="-0.067141369" rms="0.0e+00" purity="0.0e+00" nType="-99" /><Node pos="r" depth="9" NCoef="0" IVar="-1" Cut="0.0e+00" cType="1" res="-0.0308586229" rms="0.0e+00" purity="0.0e+00" nType="-99" /></Node><Node pos="r" depth="8" NCoef="0" IVar="-1" Cut="0.0e+00" cType="1" res="0.0210327599" rms="0.0e+00" purity="0.0e+00" nType="-99" /></Node><Node pos="r" depth="7" NCoef="0" IVar="16" Cut="1.46946633" cType="1" res="0.0e+00" rms="0.0e+00" purity="0.0e+00" nType="0"><Node pos="l" depth="8" NCoef="0" IVar="-1" Cut="0.0e+00" cType="1" res="0.00859755091" rms="0.0e+00" purity="0.0e+00" nType="-99" /><Node pos="r" depth="8" NCoef="0" IVar="-1" Cut="0.0e+00" cType="1" res="0.0439278334" rms="0.0e+00" purity="0.0e+00" nType="-99" /></Node></Node></Node><Node pos="r" depth="5" NCoef="0" IVar="15" Cut="92.1807709" cType="1" res="0.0e+00" rms="0.0e+00" purity="0.0e+00" nType="0"><Node pos="l" depth="6" NCoef="0" IVar="12" Cut="2.67723107" cType="1" res="0.0e+00" rms="0.0e+00" purity="0.0e+00" nType="0"><Node pos="l" depth="7" NCoef="0" IVar="4" Cut="0.786028564" cType="1" res="0.0e+00" rms="0.0e+00" purity="0.0e+00" nType="0"><Node pos="l" depth="8" NCoef="0" IVar="-1" Cut="0.0e+00" cType="1" res="-0.0646468773" rms="0.0e+00" purity="0.0e+00" nType="-99" /><Node pos="r" depth="8" NCoef="0" IVar="10" Cut="1519.69971" cType="1" res="0.0e+00" rms="0.0e+00" purity="0.0e+00" nType="0"><Node pos="l" depth="9" NCoef="0" IVar="-1" Cut="0.0e+00" cType="1" res="-0.0434228852" rms="0.0e+00" purity="0.0e+00" nType="-99" /><Node pos="r" depth="9" NCoef="0" IVar="-1" Cut="0.0e+00" cType="1" res="-0.0173657853" rms="0.0e+00" purity="0.0e+00" nType="-99" /></Node></Node><Node pos="r" depth="7" NCoef="0" IVar="11" Cut="2.20164156" cType="1" res="0.0e+00" rms="0.0e+00" purity="0.0e+00" nType="0"><Node pos="l" depth="8" NCoef="0" IVar="10" Cut="2347.35229" cType="1" res="0.0e+00" rms="0.0e+00" purity="0.0e+00" nType="0"><Node pos="l" depth="9" NCoef="0" IVar="-1" Cut="0.0e+00" cType="1" res="-0.0440716296" rms="0.0e+00" purity="0.0e+00" nType="-99" /><Node pos="r" depth="9" NCoef="0" IVar="-1" Cut="0.0e+00" cType="1" res="-0" rms="0.0e+00" purity="0.0e+00" nType="-99" /></Node><Node pos="r" depth="8" NCoef="0" IVar="5" Cut="0.52234596" cType="1" res="0.0e+00" rms="0.0e+00" purity="0.0e+00" nType="0"><Node pos="l" depth="9" NCoef="0" IVar="-1" Cut="0.0e+00" cType="1" res="-0.0155259222" rms="0.0e+00" purity="0.0e+00" nType="-99" /><Node pos="r" depth="9" NCoef="0" IVar="-1" Cut="0.0e+00" cType="1" res="0.0363558084" rms="0.0e+00" purity="0.0e+00" nType="-99" /></Node></Node></Node><Node pos="r" depth="6" NCoef="0" IVar="16" Cut="0.558062196" cType="1" res="0.0e+00" rms="0.0e+00" purity="0.0e+00" nType="0"><Node pos="l" depth="7" NCoef="0" IVar="4" Cut="1.34238112" cType="1" res="0.0e+00" rms="0.0e+00" purity="0.0e+00" nType="0"><Node pos="l" depth="8" NCoef="0" IVar="-1" Cut="0.0e+00" cType="1" res="0.00376858609" rms="0.0e+00" purity="0.0e+00" nType="-99" /><Node pos="r" depth="8" NCoef="0" IVar="-1" Cut="0.0e+00" cType="1" res="0.049357865" rms="0.0e+00" purity="0.0e+00" nType="-99" /></Node><Node pos="r" depth="7" NCoef="0" IVar="-1" Cut="0.0e+00" cType="1" res="-0.0143487314" rms="0.0e+00" purity="0.0e+00" nType="-99" /></Node></Node></Node><Node pos="r" depth="4" NCoef="0" IVar="19" Cut="0.0311830845" cType="1" res="0.0e+00" rms="0.0e+00" purity="0.0e+00" nType="0"><Node pos="l" depth="5" NCoef="0" IVar="5" Cut="0.508422136" cType="1" res="0.0e+00" rms="0.0e+00" purity="0.0e+00" nType="0"><Node pos="l" depth="6" NCoef="0" IVar="15" Cut="80.6638107" cType="1" res="0.0e+00" rms="0.0e+00" purity="0.0e+00" nType="0"><Node pos="l" depth="7" NCoef="0" IVar="4" Cut="0.846270263" cType="1" res="0.0e+00" rms="0.0e+00" purity="0.0e+00" nType="0"><Node pos="l" depth="8" NCoef="0" IVar="-1" Cut="0.0e+00" cType="1" res="-0.0612741373" rms="0.0e+00" purity="0.0e+00" nType="-99" /><Node pos="r" depth="8" NCoef="0" IVar="-1" Cut="0.0e+00" cType="1" res="-0.0131974909" rms="0.0e+00" purity="0.0e+00" nType="-99" /></Node><Node pos="r" depth="7" NCoef="0" IVar="16" Cut="0.725481331" cType="1" res="0.0e+00" rms="0.0e+00" purity="0.0e+00" nType="0"><Node pos="l" depth="8" NCoef="0" IVar="8" Cut="61.4097443" cType="1" res="0.0e+00" rms="0.0e+00" purity="0.0e+00" nType="0"><Node pos="l" depth="9" NCoef="0" IVar="-1" Cut="0.0e+00" cType="1" res="-0.00594183942" rms="0.0e+00" purity="0.0e+00" nType="-99" /><Node pos="r" depth="9" NCoef="0" IVar="-1" Cut="0.0e+00" cType="1" res="0.00833863765" rms="0.0e+00" purity="0.0e+00" nType="-99" /></Node><Node pos="r" depth="8" NCoef="0" IVar="-1" Cut="0.0e+00" cType="1" res="-0.0233396441" rms="0.0e+00" purity="0.0e+00" nType="-99" /></Node></Node><Node pos="r" depth="6" NCoef="0" IVar="5" Cut="0.686964452" cType="1" res="0.0e+00" rms="0.0e+00" purity="0.0e+00" nType="0"><Node pos="l" depth="7" NCoef="0" IVar="4" Cut="0.866601706" cType="1" res="0.0e+00" rms="0.0e+00" purity="0.0e+00" nType="0"><Node pos="l" depth="8" NCoef="0" IVar="10" Cut="2122.23242" cType="1" res="0.0e+00" rms="0.0e+00" purity="0.0e+00" nType="0"><Node pos="l" depth="9" NCoef="0" IVar="-1" Cut="0.0e+00" cType="1" res="-0.0257117879" rms="0.0e+00" purity="0.0e+00" nType="-99" /><Node pos="r" depth="9" NCoef="0" IVar="-1" Cut="0.0e+00" cType="1" res="-0" rms="0.0e+00" purity="0.0e+00" nType="-99" /></Node><Node pos="r" depth="8" NCoef="0" IVar="-1" Cut="0.0e+00" cType="1" res="0.0261063874" rms="0.0e+00" purity="0.0e+00" nType="-99" /></Node><Node pos="r" depth="7" NCoef="0" IVar="-1" Cut="0.0e+00" cType="1" res="0.0257988833" rms="0.0e+00" purity="0.0e+00" nType="-99" /></Node></Node><Node pos="r" depth="5" NCoef="0" IVar="21" Cut="0.654691875" cType="1" res="0.0e+00" rms="0.0e+00" purity="0.0e+00" nType="0"><Node pos="l" depth="6" NCoef="0" IVar="12" Cut="2.02896452" cType="1" res="0.0e+00" rms="0.0e+00" purity="0.0e+00" nType="0"><Node pos="l" depth="7" NCoef="0" IVar="-1" Cut="0.0e+00" cType="1" res="-0.0452627763" rms="0.0e+00" purity="0.0e+00" nType="-99" /><Node pos="r" depth="7" NCoef="0" IVar="-1" Cut="0.0e+00" cType="1" res="0.00543724187" rms="0.0e+00" purity="0.0e+00" nType="-99" /></Node><Node pos="r" depth="6" NCoef="0" IVar="5" Cut="0.582036614" cType="1" res="0.0e+00" rms="0.0e+00" purity="0.0e+00" nType="0"><Node pos="l" depth="7" NCoef="0" IVar="-1" Cut="0.0e+00" cType="1" res="-0" rms="0.0e+00" purity="0.0e+00" nType="-99" /><Node pos="r" depth="7" NCoef="0" IVar="-1" Cut="0.0e+00" cType="1" res="0.0295911301" rms="0.0e+00" purity="0.0e+00" nType="-99" /></Node></Node></Node></Node><Node pos="r" depth="3" NCoef="0" IVar="11" Cut="2.48224354" cType="1" res="0.0e+00" rms="0.0e+00" purity="0.0e+00" nType="0"><Node pos="l" depth="4" NCoef="0" IVar="8" Cut="139.573471" cType="1" res="0.0e+00" rms="0.0e+00" purity="0.0e+00" nType="0"><Node pos="l" depth="5" NCoef="0" IVar="5" Cut="0.562175989" cType="1" res="0.0e+00" rms="0.0e+00" purity="0.0e+00" nType="0"><Node pos="l" depth="6" NCoef="0" IVar="-1" Cut="0.0e+00" cType="1" res="-0.0393252932" rms="0.0e+00" purity="0.0e+00" nType="-99" /><Node pos="r" depth="6" NCoef="0" IVar="-1" Cut="0.0e+00" cType="1" res="-0.0118666496" rms="0.0e+00" purity="0.0e+00" nType="-99" /></Node><Node pos="r" depth="5" NCoef="0" IVar="-1" Cut="0.0e+00" cType="1" res="-0" rms="0.0e+00" purity="0.0e+00" nType="-99" /></Node><Node pos="r" depth="4" NCoef="0" IVar="8" Cut="148.062012" cType="1" res="0.0e+00" rms="0.0e+00" purity="0.0e+00" nType="0"><Node pos="l" depth="5" NCoef="0" IVar="5" Cut="0.619969726" cType="1" res="0.0e+00" rms="0.0e+00" purity="0.0e+00" nType="0"><Node pos="l" depth="6" NCoef="0" IVar="12" Cut="0.881587625" cType="1" res="0.0e+00" rms="0.0e+00" purity="0.0e+00" nType="0"><Node pos="l" depth="7" NCoef="0" IVar="4" Cut="1.09113491" cType="1" res="0.0e+00" rms="0.0e+00" purity="0.0e+00" nType="0"><Node pos="l" depth="8" NCoef="0" IVar="-1" Cut="0.0e+00" cType="1" res="-0.0482934266" rms="0.0e+00" purity="0.0e+00" nType="-99" /><Node pos="r" depth="8" NCoef="0" IVar="-1" Cut="0.0e+00" cType="1" res="-0" rms="0.0e+00" purity="0.0e+00" nType="-99" /></Node><Node pos="r" depth="7" NCoef="0" IVar="10" Cut="1038.49634" cType="1" res="0.0e+00" rms="0.0e+00" purity="0.0e+00" nType="0"><Node pos="l" depth="8" NCoef="0" IVar="0" Cut="0.791741073" cType="1" res="0.0e+00" rms="0.0e+00" purity="0.0e+00" nType="0"><Node pos="l" depth="9" NCoef="0" IVar="-1" Cut="0.0e+00" cType="1" res="-0.0193142835" rms="0.0e+00" purity="0.0e+00" nType="-99" /><Node pos="r" depth="9" NCoef="0" IVar="-1" Cut="0.0e+00" cType="1" res="-0.0398568735" rms="0.0e+00" purity="0.0e+00" nType="-99" /></Node><Node pos="r" depth="8" NCoef="0" IVar="10" Cut="1857.93408" cType="1" res="0.0e+00" rms="0.0e+00" purity="0.0e+00" nType="0"><Node pos="l" depth="9" NCoef="0" IVar="-1" Cut="0.0e+00" cType="1" res="-0.00983058196" rms="0.0e+00" purity="0.0e+00" nType="-99" /><Node pos="r" depth="9" NCoef="0" IVar="-1" Cut="0.0e+00" cType="1" res="0.00647245022" rms="0.0e+00" purity="0.0e+00" nType="-99" /></Node></Node></Node><Node pos="r" depth="6" NCoef="0" IVar="5" Cut="0.790157974" cType="1" res="0.0e+00" rms="0.0e+00" purity="0.0e+00" nType="0"><Node pos="l" depth="7" NCoef="0" IVar="10" Cut="1728.05542" cType="1" res="0.0e+00" rms="0.0e+00" purity="0.0e+00" nType="0"><Node pos="l" depth="8" NCoef="0" IVar="-1" Cut="0.0e+00" cType="1" res="-0" rms="0.0e+00" purity="0.0e+00" nType="-99" /><Node pos="r" depth="8" NCoef="0" IVar="-1" Cut="0.0e+00" cType="1" res="0.0287285876" rms="0.0e+00" purity="0.0e+00" nType="-99" /></Node><Node pos="r" depth="7" NCoef="0" IVar="-1" Cut="0.0e+00" cType="1" res="0.0528903268" rms="0.0e+00" purity="0.0e+00" nType="-99" /></Node></Node><Node pos="r" depth="5" NCoef="0" IVar="16" Cut="0.178360447" cType="1" res="0.0e+00" rms="0.0e+00" purity="0.0e+00" nType="0"><Node pos="l" depth="6" NCoef="0" IVar="-1" Cut="0.0e+00" cType="1" res="0.0480253883" rms="0.0e+00" purity="0.0e+00" nType="-99" /><Node pos="r" depth="6" NCoef="0" IVar="0" Cut="-1.16911912" cType="1" res="0.0e+00" rms="0.0e+00" purity="0.0e+00" nType="0"><Node pos="l" depth="7" NCoef="0" IVar="4" Cut="0.974706888" cType="1" res="0.0e+00" rms="0.0e+00" purity="0.0e+00" nType="0"><Node pos="l" depth="8" NCoef="0" IVar="-1" Cut="0.0e+00" cType="1" res="-0.0122521585" rms="0.0e+00" purity="0.0e+00" nType="-99" /><Node pos="r" depth="8" NCoef="0" IVar="-1" Cut="0.0e+00" cType="1" res="0.00960440747" rms="0.0e+00" purity="0.0e+00" nType="-99" /></Node><Node pos="r" depth="7" NCoef="0" IVar="0" Cut="0.983396232" cType="1" res="0.0e+00" rms="0.0e+00" purity="0.0e+00" nType="0"><Node pos="l" depth="8" NCoef="0" IVar="-1" Cut="0.0e+00" cType="1" res="0.0228801798" rms="0.0e+00" purity="0.0e+00" nType="-99" /><Node pos="r" depth="8" NCoef="0" IVar="-1" Cut="0.0e+00" cType="1" res="0.00298271514" rms="0.0e+00" purity="0.0e+00" nType="-99" /></Node></Node></Node></Node></Node></Node><Node pos="r" depth="2" NCoef="0" IVar="5" Cut="1.29956079" cType="1" res="0.0e+00" rms="0.0e+00" purity="0.0e+00" nType="0"><Node pos="l" depth="3" NCoef="0" IVar="-1" Cut="0.0e+00" cType="1" res="0.10088402" rms="0.0e+00" purity="0.0e+00" nType="-99" /><Node pos="r" depth="3" NCoef="0" IVar="-1" Cut="0.0e+00" cType="1" res="0.160381243" rms="0.0e+00" purity="0.0e+00" nType="-99" /></Node></Node><Node pos="r" depth="1" NCoef="0" IVar="8" Cut="290.162903" cType="1" res="0.0e+00" rms="0.0e+00" purity="0.0e+00" nType="0"><Node pos="l" depth="2" NCoef="0" IVar="8" Cut="225.670334" cType="1" res="0.0e+00" rms="0.0e+00" purity="0.0e+00" nType="0"><Node pos="l" depth="3" NCoef="0" IVar="0" Cut="1.41633224" cType="1" res="0.0e+00" rms="0.0e+00" purity="0.0e+00" nType="0"><Node pos="l" depth="4" NCoef="0" IVar="8" Cut="188.892258" cType="1" res="0.0e+00" rms="0.0e+00" purity="0.0e+00" nType="0"><Node pos="l" depth="5" NCoef="0" IVar="5" Cut="0.952552617" cType="1" res="0.0e+00" rms="0.0e+00" purity="0.0e+00" nType="0"><Node pos="l" depth="6" NCoef="0" IVar="12" Cut="2.54503465" cType="1" res="0.0e+00" rms="0.0e+00" purity="0.0e+00" nType="0"><Node pos="l" depth="7" NCoef="0" IVar="-1" Cut="0.0e+00" cType="1" res="0.0215059295" rms="0.0e+00" purity="0.0e+00" nType="-99" /><Node pos="r" depth="7" NCoef="0" IVar="-1" Cut="0.0e+00" cType="1" res="0.0515017882" rms="0.0e+00" purity="0.0e+00" nType="-99" /></Node><Node pos="r" depth="6" NCoef="0" IVar="-1" Cut="0.0e+00" cType="1" res="0.102830596" rms="0.0e+00" purity="0.0e+00" nType="-99" /></Node><Node pos="r" depth="5" NCoef="0" IVar="15" Cut="211.903152" cType="1" res="0.0e+00" rms="0.0e+00" purity="0.0e+00" nType="0"><Node pos="l" depth="6" NCoef="0" IVar="-1" Cut="0.0e+00" cType="1" res="0.0572677478" rms="0.0e+00" purity="0.0e+00" nType="-99" /><Node pos="r" depth="6" NCoef="0" IVar="-1" Cut="0.0e+00" cType="1" res="0.147578999" rms="0.0e+00" purity="0.0e+00" nType="-99" /></Node></Node><Node pos="r" depth="4" NCoef="0" IVar="-1" Cut="0.0e+00" cType="1" res="0.0307199769" rms="0.0e+00" purity="0.0e+00" nType="-99" /></Node><Node pos="r" depth="3" NCoef="0" IVar="10" Cut="2048.1189" cType="1" res="0.0e+00" rms="0.0e+00" purity="0.0e+00" nType="0"><Node pos="l" depth="4" NCoef="0" IVar="-1" Cut="0.0e+00" cType="1" res="0.079504095" rms="0.0e+00" purity="0.0e+00" nType="-99" /><Node pos="r" depth="4" NCoef="0" IVar="-1" Cut="0.0e+00" cType="1" res="0.112022094" rms="0.0e+00" purity="0.0e+00" nType="-99" /></Node></Node><Node pos="r" depth="2" NCoef="0" IVar="8" Cut="399.451355" cType="1" res="0.0e+00" rms="0.0e+00" purity="0.0e+00" nType="0"><Node pos="l" depth="3" NCoef="0" IVar="-1" Cut="0.0e+00" cType="1" res="0.121864617" rms="0.0e+00" purity="0.0e+00" nType="-99" /><Node pos="r" depth="3" NCoef="0" IVar="-1" Cut="0.0e+00" cType="1" res="0.166174188" rms="0.0e+00" purity="0.0e+00" nType="-99" /></Node></Node></Node></BinaryTree><BinaryTree type="DecisionTree" boostWeight="1.0e+00" itree="3"><Node pos="s" depth="0" NCoef="0" IVar="5" Cut="0.625203669" cType="1" res="0.0e+00" rms="0.0e+00" purity="0.0e+00" nType="0"><Node pos="l" depth="1" NCoef="0" IVar="13" Cut="0.609984517" cType="1" res="0.0e+00" rms="0.0e+00" purity="0.0e+00" nType="0"><Node pos="l" depth="2" NCoef="0" IVar="19" Cut="0.0276840702" cType="1" res="0.0e+00" rms="0.0e+00" purity="0.0e+00" nType="0"><Node pos="l" depth="3" NCoef="0" IVar="5" Cut="0.505810142" cType="1" res="0.0e+00" rms="0.0e+00" purity="0.0e+00" nType="0"><Node pos="l" depth="4" NCoef="0" IVar="4" Cut="1.03841507" cType="1" res="0.0e+00" rms="0.0e+00" purity="0.0e+00" nType="0"><Node pos="l" depth="5" NCoef="0" IVar="4" Cut="0.72150743" cType="1" res="0.0e+00" rms="0.0e+00" purity="0.0e+00" nType="0"><Node pos="l" depth="6" NCoef="0" IVar="13" Cut="-0.31355527" cType="1" res="0.0e+00" rms="0.0e+00" purity="0.0e+00" nType="0"><Node pos="l" depth="7" NCoef="0" IVar="8" Cut="91.2153778" cType="1" res="0.0e+00" rms="0.0e+00" purity="0.0e+00" nType="0"><Node pos="l" depth="8" NCoef="0" IVar="-1" Cut="0.0e+00" cType="1" res="-0.0822101533" rms="0.0e+00" purity="0.0e+00" nType="-99" /><Node pos="r" depth="8" NCoef="0" IVar="8" Cut="131.909851" cType="1" res="0.0e+00" rms="0.0e+00" purity="0.0e+00" nType="0"><Node pos="l" depth="9" NCoef="0" IVar="-1" Cut="0.0e+00" cType="1" res="-0.0579448417" rms="0.0e+00" purity="0.0e+00" nType="-99" /><Node pos="r" depth="9" NCoef="0" IVar="-1" Cut="0.0e+00" cType="1" res="-0.0166989733" rms="0.0e+00" purity="0.0e+00" nType="-99" /></Node></Node><Node pos="r" depth="7" NCoef="0" IVar="8" Cut="82.7166672" cType="1" res="0.0e+00" rms="0.0e+00" purity="0.0e+00" nType="0"><Node pos="l" depth="8" NCoef="0" IVar="9" Cut="1.13382876" cType="1" res="0.0e+00" rms="0.0e+00" purity="0.0e+00" nType="0"><Node pos="l" depth="9" NCoef="0" IVar="-1" Cut="0.0e+00" cType="1" res="-0.0697170198" rms="0.0e+00" purity="0.0e+00" nType="-99" /><Node pos="r" depth="9" NCoef="0" IVar="-1" Cut="0.0e+00" cType="1" res="-0.0560977831" rms="0.0e+00" purity="0.0e+00" nType="-99" /></Node><Node pos="r" depth="8" NCoef="0" IVar="8" Cut="135.607056" cType="1" res="0.0e+00" rms="0.0e+00" purity="0.0e+00" nType="0"><Node pos="l" depth="9" NCoef="0" IVar="-1" Cut="0.0e+00" cType="1" res="-0.0391494595" rms="0.0e+00" purity="0.0e+00" nType="-99" /><Node pos="r" depth="9" NCoef="0" IVar="-1" Cut="0.0e+00" cType="1" res="-0" rms="0.0e+00" purity="0.0e+00" nType="-99" /></Node></Node></Node><Node pos="r" depth="6" NCoef="0" IVar="17" Cut="0.975569427" cType="1" res="0.0e+00" rms="0.0e+00" purity="0.0e+00" nType="0"><Node pos="l" depth="7" NCoef="0" IVar="8" Cut="113.396004" cType="1" res="0.0e+00" rms="0.0e+00" purity="0.0e+00" nType="0"><Node pos="l" depth="8" NCoef="0" IVar="5" Cut="0.357022971" cType="1" res="0.0e+00" rms="0.0e+00" purity="0.0e+00" nType="0"><Node pos="l" depth="9" NCoef="0" IVar="-1" Cut="0.0e+00" cType="1" res="-0.0444163084" rms="0.0e+00" purity="0.0e+00" nType="-99" /><Node pos="r" depth="9" NCoef="0" IVar="-1" Cut="0.0e+00" cType="1" res="-0.0275391545" rms="0.0e+00" purity="0.0e+00" nType="-99" /></Node><Node pos="r" depth="8" NCoef="0" IVar="8" Cut="135.607056" cType="1" res="0.0e+00" rms="0.0e+00" purity="0.0e+00" nType="0"><Node pos="l" depth="9" NCoef="0" IVar="-1" Cut="0.0e+00" cType="1" res="-0.0184394214" rms="0.0e+00" purity="0.0e+00" nType="-99" /><Node pos="r" depth="9" NCoef="0" IVar="-1" Cut="0.0e+00" cType="1" res="-0" rms="0.0e+00" purity="0.0e+00" nType="-99" /></Node></Node><Node pos="r" depth="7" NCoef="0" IVar="5" Cut="0.382089168" cType="1" res="0.0e+00" rms="0.0e+00" purity="0.0e+00" nType="0"><Node pos="l" depth="8" NCoef="0" IVar="-1" Cut="0.0e+00" cType="1" res="-0.0539272614" rms="0.0e+00" purity="0.0e+00" nType="-99" /><Node pos="r" depth="8" NCoef="0" IVar="-1" Cut="0.0e+00" cType="1" res="-0.0319160186" rms="0.0e+00" purity="0.0e+00" nType="-99" /></Node></Node></Node><Node pos="r" depth="5" NCoef="0" IVar="4" Cut="1.53202796" cType="1" res="0.0e+00" rms="0.0e+00" purity="0.0e+00" nType="0"><Node pos="l" depth="6" NCoef="0" IVar="17" Cut="0.980320394" cType="1" res="0.0e+00" rms="0.0e+00" purity="0.0e+00" nType="0"><Node pos="l" depth="7" NCoef="0" IVar="8" Cut="142.341461" cType="1" res="0.0e+00" rms="0.0e+00" purity="0.0e+00" nType="0"><Node pos="l" depth="8" NCoef="0" IVar="5" Cut="0.314218402" cType="1" res="0.0e+00" rms="0.0e+00" purity="0.0e+00" nType="0"><Node pos="l" depth="9" NCoef="0" IVar="-1" Cut="0.0e+00" cType="1" res="-0.00312565104" rms="0.0e+00" purity="0.0e+00" nType="-99" /><Node pos="r" depth="9" NCoef="0" IVar="-1" Cut="0.0e+00" cType="1" res="0.0168554466" rms="0.0e+00" purity="0.0e+00" nType="-99" /></Node><Node pos="r" depth="8" NCoef="0" IVar="8" Cut="186.375534" cType="1" res="0.0e+00" rms="0.0e+00" purity="0.0e+00" nType="0"><Node pos="l" depth="9" NCoef="0" IVar="-1" Cut="0.0e+00" cType="1" res="0.0217126552" rms="0.0e+00" purity="0.0e+00" nType="-99" /><Node pos="r" depth="9" NCoef="0" IVar="-1" Cut="0.0e+00" cType="1" res="0.0422024056" rms="0.0e+00" purity="0.0e+00" nType="-99" /></Node></Node><Node pos="r" depth="7" NCoef="0" IVar="5" Cut="0.292382598" cType="1" res="0.0e+00" rms="0.0e+00" purity="0.0e+00" nType="0"><Node pos="l" depth="8" NCoef="0" IVar="-1" Cut="0.0e+00" cType="1" res="-0.0253828745" rms="0.0e+00" purity="0.0e+00" nType="-99" /><Node pos="r" depth="8" NCoef="0" IVar="8" Cut="148.062012" cType="1" res="0.0e+00" rms="0.0e+00" purity="0.0e+00" nType="0"><Node pos="l" depth="9" NCoef="0" IVar="-1" Cut="0.0e+00" cType="1" res="-0.00216867193" rms="0.0e+00" purity="0.0e+00" nType="-99" /><Node pos="r" depth="9" NCoef="0" IVar="-1" Cut="0.0e+00" cType="1" res="0.0101819476" rms="0.0e+00" purity="0.0e+00" nType="-99" /></Node></Node></Node><Node pos="r" depth="6" NCoef="0" IVar="13" Cut="0.119861379" cType="1" res="0.0e+00" rms="0.0e+00" purity="0.0e+00" nType="0"><Node pos="l" depth="7" NCoef="0" IVar="8" Cut="385.110443" cType="1" res="0.0e+00" rms="0.0e+00" purity="0.0e+00" nType="0"><Node pos="l" depth="8" NCoef="0" IVar="8" Cut="266.154938" cType="1" res="0.0e+00" rms="0.0e+00" purity="0.0e+00" nType="0"><Node pos="l" depth="9" NCoef="0" IVar="-1" Cut="0.0e+00" cType="1" res="0.0623478182" rms="0.0e+00" purity="0.0e+00" nType="-99" /><Node pos="r" depth="9" NCoef="0" IVar="-1" Cut="0.0e+00" cType="1" res="0.0944944993" rms="0.0e+00" purity="0.0e+00" nType="-99" /></Node><Node pos="r" depth="8" NCoef="0" IVar="-1" Cut="0.0e+00" cType="1" res="0.139085084" rms="0.0e+00" purity="0.0e+00" nType="-99" /></Node><Node pos="r" depth="7" NCoef="0" IVar="8" Cut="246.319656" cType="1" res="0.0e+00" rms="0.0e+00" purity="0.0e+00" nType="0"><Node pos="l" depth="8" NCoef="0" IVar="-1" Cut="0.0e+00" cType="1" res="0.0472920015" rms="0.0e+00" purity="0.0e+00" nType="-99" /><Node pos="r" depth="8" NCoef="0" IVar="-1" Cut="0.0e+00" cType="1" res="0.0898216963" rms="0.0e+00" purity="0.0e+00" nType="-99" /></Node></Node></Node></Node><Node pos="r" depth="4" NCoef="0" IVar="0" Cut="-1.57611752" cType="1" res="0.0e+00" rms="0.0e+00" purity="0.0e+00" nType="0"><Node pos="l" depth="5" NCoef="0" IVar="4" Cut="0.974706888" cType="1" res="0.0e+00" rms="0.0e+00" purity="0.0e+00" nType="0"><Node pos="l" depth="6" NCoef="0" IVar="-1" Cut="0.0e+00" cType="1" res="-0.0489639603" rms="0.0e+00" purity="0.0e+00" nType="-99" /><Node pos="r" depth="6" NCoef="0" IVar="-1" Cut="0.0e+00" cType="1" res="0.0288324151" rms="0.0e+00" purity="0.0e+00" nType="-99" /></Node><Node pos="r" depth="5" NCoef="0" IVar="4" Cut="1.00237751" cType="1" res="0.0e+00" rms="0.0e+00" purity="0.0e+00" nType="0"><Node pos="l" depth="6" NCoef="0" IVar="0" Cut="1.39734948" cType="1" res="0.0e+00" rms="0.0e+00" purity="0.0e+00" nType="0"><Node pos="l" depth="7" NCoef="0" IVar="8" Cut="116.151642" cType="1" res="0.0e+00" rms="0.0e+00" purity="0.0e+00" nType="0"><Node pos="l" depth="8" NCoef="0" IVar="-1" Cut="0.0e+00" cType="1" res="-0.0353173167" rms="0.0e+00" purity="0.0e+00" nType="-99" /><Node pos="r" depth="8" NCoef="0" IVar="8" Cut="161.441376" cType="1" res="0.0e+00" rms="0.0e+00" purity="0.0e+00" nType="0"><Node pos="l" depth="9" NCoef="0" IVar="-1" Cut="0.0e+00" cType="1" res="-0.00432791142" rms="0.0e+00" purity="0.0e+00" nType="-99" /><Node pos="r" depth="9" NCoef="0" IVar="-1" Cut="0.0e+00" cType="1" res="0.013942604" rms="0.0e+00" purity="0.0e+00" nType="-99" /></Node></Node><Node pos="r" depth="7" NCoef="0" IVar="19" Cut="0.0210598223" cType="1" res="0.0e+00" rms="0.0e+00" purity="0.0e+00" nType="0"><Node pos="l" depth="8" NCoef="0" IVar="-1" Cut="0.0e+00" cType="1" res="-0.0704136863" rms="0.0e+00" purity="0.0e+00" nType="-99" /><Node pos="r" depth="8" NCoef="0" IVar="-1" Cut="0.0e+00" cType="1" res="-0.0311163813" rms="0.0e+00" purity="0.0e+00" nType="-99" /></Node></Node><Node pos="r" depth="6" NCoef="0" IVar="17" Cut="0.996326506" cType="1" res="0.0e+00" rms="0.0e+00" purity="0.0e+00" nType="0"><Node pos="l" depth="7" NCoef="0" IVar="8" Cut="329.154144" cType="1" res="0.0e+00" rms="0.0e+00" purity="0.0e+00" nType="0"><Node pos="l" depth="8" NCoef="0" IVar="-1" Cut="0.0e+00" cType="1" res="0.0583872236" rms="0.0e+00" purity="0.0e+00" nType="-99" /><Node pos="r" depth="8" NCoef="0" IVar="-1" Cut="0.0e+00" cType="1" res="0.116829783" rms="0.0e+00" purity="0.0e+00" nType="-99" /></Node><Node pos="r" depth="7" NCoef="0" IVar="8" Cut="138.278625" cType="1" res="0.0e+00" rms="0.0e+00" purity="0.0e+00" nType="0"><Node pos="l" depth="8" NCoef="0" IVar="-1" Cut="0.0e+00" cType="1" res="-0" rms="0.0e+00" purity="0.0e+00" nType="-99" /><Node pos="r" depth="8" NCoef="0" IVar="-1" Cut="0.0e+00" cType="1" res="0.0540828519" rms="0.0e+00" purity="0.0e+00" nType="-99" /></Node></Node></Node></Node></Node><Node pos="r" depth="3" NCoef="0" IVar="5" Cut="0.450898319" cType="1" res="0.0e+00" rms="0.0e+00" purity="0.0e+00" nType="0"><Node pos="l" depth="4" NCoef="0" IVar="4" Cut="1.20329499" cType="1" res="0.0e+00" rms="0.0e+00" purity="0.0e+00" nType="0"><Node pos="l" depth="5" NCoef="0" IVar="4" Cut="0.910614908" cType="1" res="0.0e+00" rms="0.0e+00" purity="0.0e+00" nType="0"><Node pos="l" depth="6" NCoef="0" IVar="13" Cut="-0.395994633" cType="1" res="0.0e+00" rms="0.0e+00" purity="0.0e+00" nType="0"><Node pos="l" depth="7" NCoef="0" IVar="-1" Cut="0.0e+00" cType="1" res="-0.0667373836" rms="0.0e+00" purity="0.0e+00" nType="-99" /><Node pos="r" depth="7" NCoef="0" IVar="8" Cut="101.435143" cType="1" res="0.0e+00" rms="0.0e+00" purity="0.0e+00" nType="0"><Node pos="l" depth="8" NCoef="0" IVar="-1" Cut="0.0e+00" cType="1" res="-0.0367004983" rms="0.0e+00" purity="0.0e+00" nType="-99" /><Node pos="r" depth="8" NCoef="0" IVar="-1" Cut="0.0e+00" cType="1" res="-0.00446698954" rms="0.0e+00" purity="0.0e+00" nType="-99" /></Node></Node><Node pos="r" depth="6" NCoef="0" IVar="17" Cut="0.63494736" cType="1" res="0.0e+00" rms="0.0e+00" purity="0.0e+00" nType="0"><Node pos="l" depth="7" NCoef="0" IVar="5" Cut="0.302488685" cType="1" res="0.0e+00" rms="0.0e+00" purity="0.0e+00" nType="0"><Node pos="l" depth="8" NCoef="0" IVar="-1" Cut="0.0e+00" cType="1" res="-0" rms="0.0e+00" purity="0.0e+00" nType="-99" /><Node pos="r" depth="8" NCoef="0" IVar="-1" Cut="0.0e+00" cType="1" res="0.0381876305" rms="0.0e+00" purity="0.0e+00" nType="-99" /></Node><Node pos="r" depth="7" NCoef="0" IVar="-1" Cut="0.0e+00" cType="1" res="-0.00119226507" rms="0.0e+00" purity="0.0e+00" nType="-99" /></Node></Node><Node pos="r" depth="5" NCoef="0" IVar="4" Cut="1.88089526" cType="1" res="0.0e+00" rms="0.0e+00" purity="0.0e+00" nType="0"><Node pos="l" depth="6" NCoef="0" IVar="-1" Cut="0.0e+00" cType="1" res="0.0363085605" rms="0.0e+00" purity="0.0e+00" nType="-99" /><Node pos="r" depth="6" NCoef="0" IVar="-1" Cut="0.0e+00" cType="1" res="0.0967870653" rms="0.0e+00" purity="0.0e+00" nType="-99" /></Node></Node><Node pos="r" depth="4" NCoef="0" IVar="7" Cut="1.00838804" cType="1" res="0.0e+00" rms="0.0e+00" purity="0.0e+00" nType="0"><Node pos="l" depth="5" NCoef="0" IVar="4" Cut="1.18595648" cType="1" res="0.0e+00" rms="0.0e+00" purity="0.0e+00" nType="0"><Node pos="l" depth="6" NCoef="0" IVar="-1" Cut="0.0e+00" cType="1" res="-0.00305243582" rms="0.0e+00" purity="0.0e+00" nType="-99" /><Node pos="r" depth="6" NCoef="0" IVar="-1" Cut="0.0e+00" cType="1" res="0.105253682" rms="0.0e+00" purity="0.0e+00" nType="-99" /></Node><Node pos="r" depth="5" NCoef="0" IVar="4" Cut="0.944202125" cType="1" res="0.0e+00" rms="0.0e+00" purity="0.0e+00" nType="0"><Node pos="l" depth="6" NCoef="0" IVar="17" Cut="0.958726287" cType="1" res="0.0e+00" rms="0.0e+00" purity="0.0e+00" nType="0"><Node pos="l" depth="7" NCoef="0" IVar="-1" Cut="0.0e+00" cType="1" res="0.00637975382" rms="0.0e+00" purity="0.0e+00" nType="-99" /><Node pos="r" depth="7" NCoef="0" IVar="-1" Cut="0.0e+00" cType="1" res="-0.0167487767" rms="0.0e+00" purity="0.0e+00" nType="-99" /></Node><Node pos="r" depth="6" NCoef="0" IVar="-1" Cut="0.0e+00" cType="1" res="0.0334677957" rms="0.0e+00" purity="0.0e+00" nType="-99" /></Node></Node></Node></Node><Node pos="r" depth="2" NCoef="0" IVar="-1" Cut="0.0e+00" cType="1" res="0.0634257719" rms="0.0e+00" purity="0.0e+00" nType="-99" /></Node><Node pos="r" depth="1" NCoef="0" IVar="13" Cut="0.804602265" cType="1" res="0.0e+00" rms="0.0e+00" purity="0.0e+00" nType="0"><Node pos="l" depth="2" NCoef="0" IVar="19" Cut="0.0281972159" cType="1" res="0.0e+00" rms="0.0e+00" purity="0.0e+00" nType="0"><Node pos="l" depth="3" NCoef="0" IVar="5" Cut="0.904499054" cType="1" res="0.0e+00" rms="0.0e+00" purity="0.0e+00" nType="0"><Node pos="l" depth="4" NCoef="0" IVar="4" Cut="1.4365741" cType="1" res="0.0e+00" rms="0.0e+00" purity="0.0e+00" nType="0"><Node pos="l" depth="5" NCoef="0" IVar="4" Cut="0.933693945" cType="1" res="0.0e+00" rms="0.0e+00" purity="0.0e+00" nType="0"><Node pos="l" depth="6" NCoef="0" IVar="17" Cut="0.972369909" cType="1" res="0.0e+00" rms="0.0e+00" purity="0.0e+00" nType="0"><Node pos="l" depth="7" NCoef="0" IVar="5" Cut="0.733057797" cType="1" res="0.0e+00" rms="0.0e+00" purity="0.0e+00" nType="0"><Node pos="l" depth="8" NCoef="0" IVar="19" Cut="0.0228774343" cType="1" res="0.0e+00" rms="0.0e+00" purity="0.0e+00" nType="0"><Node pos="l" depth="9" NCoef="0" IVar="-1" Cut="0.0e+00" cType="1" res="-0" rms="0.0e+00" purity="0.0e+00" nType="-99" /><Node pos="r" depth="9" NCoef="0" IVar="-1" Cut="0.0e+00" cType="1" res="0.0206615869" rms="0.0e+00" purity="0.0e+00" nType="-99" /></Node><Node pos="r" depth="8" NCoef="0" IVar="-1" Cut="0.0e+00" cType="1" res="0.0329250693" rms="0.0e+00" purity="0.0e+00" nType="-99" /></Node><Node pos="r" depth="7" NCoef="0" IVar="1" Cut="1.21922338" cType="1" res="0.0e+00" rms="0.0e+00" purity="0.0e+00" nType="0"><Node pos="l" depth="8" NCoef="0" IVar="9" Cut="0.910355926" cType="1" res="0.0e+00" rms="0.0e+00" purity="0.0e+00" nType="0"><Node pos="l" depth="9" NCoef="0" IVar="-1" Cut="0.0e+00" cType="1" res="-0.0114175817" rms="0.0e+00" purity="0.0e+00" nType="-99" /><Node pos="r" depth="9" NCoef="0" IVar="-1" Cut="0.0e+00" cType="1" res="0.00599115109" rms="0.0e+00" purity="0.0e+00" nType="-99" /></Node><Node pos="r" depth="8" NCoef="0" IVar="-1" Cut="0.0e+00" cType="1" res="-0.0248636752" rms="0.0e+00" purity="0.0e+00" nType="-99" /></Node></Node><Node pos="r" depth="6" NCoef="0" IVar="17" Cut="0.999176443" cType="1" res="0.0e+00" rms="0.0e+00" purity="0.0e+00" nType="0"><Node pos="l" depth="7" NCoef="0" IVar="-1" Cut="0.0e+00" cType="1" res="0.0523725338" rms="0.0e+00" purity="0.0e+00" nType="-99" /><Node pos="r" depth="7" NCoef="0" IVar="8" Cut="84.2307205" cType="1" res="0.0e+00" rms="0.0e+00" purity="0.0e+00" nType="0"><Node pos="l" depth="8" NCoef="0" IVar="-1" Cut="0.0e+00" cType="1" res="0.0347226709" rms="0.0e+00" purity="0.0e+00" nType="-99" /><Node pos="r" depth="8" NCoef="0" IVar="-1" Cut="0.0e+00" cType="1" res="0.00503638806" rms="0.0e+00" purity="0.0e+00" nType="-99" /></Node></Node></Node><Node pos="r" depth="5" NCoef="0" IVar="4" Cut="2.14082003" cType="1" res="0.0e+00" rms="0.0e+00" purity="0.0e+00" nType="0"><Node pos="l" depth="6" NCoef="0" IVar="17" Cut="0.96939218" cType="1" res="0.0e+00" rms="0.0e+00" purity="0.0e+00" nType="0"><Node pos="l" depth="7" NCoef="0" IVar="-1" Cut="0.0e+00" cType="1" res="0.0994563326" rms="0.0e+00" purity="0.0e+00" nType="-99" /><Node pos="r" depth="7" NCoef="0" IVar="-1" Cut="0.0e+00" cType="1" res="0.0644684359" rms="0.0e+00" purity="0.0e+00" nType="-99" /></Node><Node pos="r" depth="6" NCoef="0" IVar="-1" Cut="0.0e+00" cType="1" res="0.124102473" rms="0.0e+00" purity="0.0e+00" nType="-99" /></Node></Node><Node pos="r" depth="4" NCoef="0" IVar="7" Cut="0.441303074" cType="1" res="0.0e+00" rms="0.0e+00" purity="0.0e+00" nType="0"><Node pos="l" depth="5" NCoef="0" IVar="4" Cut="2.2199769" cType="1" res="0.0e+00" rms="0.0e+00" purity="0.0e+00" nType="0"><Node pos="l" depth="6" NCoef="0" IVar="-1" Cut="0.0e+00" cType="1" res="0.0968961418" rms="0.0e+00" purity="0.0e+00" nType="-99" /><Node pos="r" depth="6" NCoef="0" IVar="-1" Cut="0.0e+00" cType="1" res="0.155143306" rms="0.0e+00" purity="0.0e+00" nType="-99" /></Node><Node pos="r" depth="5" NCoef="0" IVar="4" Cut="1.45171463" cType="1" res="0.0e+00" rms="0.0e+00" purity="0.0e+00" nType="0"><Node pos="l" depth="6" NCoef="0" IVar="-1" Cut="0.0e+00" cType="1" res="0.0658836439" rms="0.0e+00" purity="0.0e+00" nType="-99" /><Node pos="r" depth="6" NCoef="0" IVar="-1" Cut="0.0e+00" cType="1" res="0.116553724" rms="0.0e+00" purity="0.0e+00" nType="-99" /></Node></Node></Node><Node pos="r" depth="3" NCoef="0" IVar="7" Cut="0.61193192" cType="1" res="0.0e+00" rms="0.0e+00" purity="0.0e+00" nType="0"><Node pos="l" depth="4" NCoef="0" IVar="-1" Cut="0.0e+00" cType="1" res="0.14323692" rms="0.0e+00" purity="0.0e+00" nType="-99" /><Node pos="r" depth="4" NCoef="0" IVar="7" Cut="1.00838804" cType="1" res="0.0e+00" rms="0.0e+00" purity="0.0e+00" nType="0"><Node pos="l" depth="5" NCoef="0" IVar="-1" Cut="0.0e+00" cType="1" res="0.0856312066" rms="0.0e+00" purity="0.0e+00" nType="-99" /><Node pos="r" depth="5" NCoef="0" IVar="-1" Cut="0.0e+00" cType="1" res="0.0315227471" rms="0.0e+00" purity="0.0e+00" nType="-99" /></Node></Node></Node><Node pos="r" depth="2" NCoef="0" IVar="5" Cut="1.62906706" cType="1" res="0.0e+00" rms="0.0e+00" purity="0.0e+00" nType="0"><Node pos="l" depth="3" NCoef="0" IVar="-1" Cut="0.0e+00" cType="1" res="0.130429491" rms="0.0e+00" purity="0.0e+00" nType="-99" /><Node pos="r" depth="3" NCoef="0" IVar="-1" Cut="0.0e+00" cType="1" res="0.162059113" rms="0.0e+00" purity="0.0e+00" nType="-99" /></Node></Node></Node></BinaryTree><BinaryTree type="DecisionTree" boostWeight="1.0e+00" itree="4"><Node pos="s" depth="0" NCoef="0" IVar="6" Cut="0.324310958" cType="1" res="0.0e+00" rms="0.0e+00" purity="0.0e+00" nType="0"><Node pos="l" depth="1" NCoef="0" IVar="6" Cut="-0.38661769" cType="1" res="0.0e+00" rms="0.0e+00" purity="0.0e+00" nType="0"><Node pos="l" depth="2" NCoef="0" IVar="8" Cut="100.728577" cType="1" res="0.0e+00" rms="0.0e+00" purity="0.0e+00" nType="0"><Node pos="l" depth="3" NCoef="0" IVar="4" Cut="0.800376952" cType="1" res="0.0e+00" rms="0.0e+00" purity="0.0e+00" nType="0"><Node pos="l" depth="4" NCoef="0" IVar="6" Cut="-0.793290317" cType="1" res="0.0e+00" rms="0.0e+00" purity="0.0e+00" nType="0"><Node pos="l" depth="5" NCoef="0" IVar="18" Cut="0.00717752008" cType="1" res="0.0e+00" rms="0.0e+00" purity="0.0e+00" nType="0"><Node pos="l" depth="6" NCoef="0" IVar="-1" Cut="0.0e+00" cType="1" res="-0.0908972919" rms="0.0e+00" purity="0.0e+00" nType="-99" /><Node pos="r" depth="6" NCoef="0" IVar="0" Cut="1.61804807" cType="1" res="0.0e+00" rms="0.0e+00" purity="0.0e+00" nType="0"><Node pos="l" depth="7" NCoef="0" IVar="18" Cut="0.00875346363" cType="1" res="0.0e+00" rms="0.0e+00" purity="0.0e+00" nType="0"><Node pos="l" depth="8" NCoef="0" IVar="-1" Cut="0.0e+00" cType="1" res="-0.0442917421" rms="0.0e+00" purity="0.0e+00" nType="-99" /><Node pos="r" depth="8" NCoef="0" IVar="16" Cut="3.09269118" cType="1" res="0.0e+00" rms="0.0e+00" purity="0.0e+00" nType="0"><Node pos="l" depth="9" NCoef="0" IVar="-1" Cut="0.0e+00" cType="1" res="-0.0761124715" rms="0.0e+00" purity="0.0e+00" nType="-99" /><Node pos="r" depth="9" NCoef="0" IVar="-1" Cut="0.0e+00" cType="1" res="-0.0616247803" rms="0.0e+00" purity="0.0e+00" nType="-99" /></Node></Node><Node pos="r" depth="7" NCoef="0" IVar="-1" Cut="0.0e+00" cType="1" res="-0.0850774869" rms="0.0e+00" purity="0.0e+00" nType="-99" /></Node></Node><Node pos="r" depth="5" NCoef="0" IVar="18" Cut="0.0071244454" cType="1" res="0.0e+00" rms="0.0e+00" purity="0.0e+00" nType="0"><Node pos="l" depth="6" NCoef="0" IVar="-1" Cut="0.0e+00" cType="1" res="-0.0827924982" rms="0.0e+00" purity="0.0e+00" nType="-99" /><Node pos="r" depth="6" NCoef="0" IVar="17" Cut="0.714342475" cType="1" res="0.0e+00" rms="0.0e+00" purity="0.0e+00" nType="0"><Node pos="l" depth="7" NCoef="0" IVar="18" Cut="0.00797835737" cType="1" res="0.0e+00" rms="0.0e+00" purity="0.0e+00" nType="0"><Node pos="l" depth="8" NCoef="0" IVar="-1" Cut="0.0e+00" cType="1" res="-0" rms="0.0e+00" purity="0.0e+00" nType="-99" /><Node pos="r" depth="8" NCoef="0" IVar="-1" Cut="0.0e+00" cType="1" res="-0.0479543954" rms="0.0e+00" purity="0.0e+00" nType="-99" /></Node><Node pos="r" depth="7" NCoef="0" IVar="-1" Cut="0.0e+00" cType="1" res="-0.062074367" rms="0.0e+00" purity="0.0e+00" nType="-99" /></Node></Node></Node><Node pos="r" depth="4" NCoef="0" IVar="6" Cut="-0.8842659" cType="1" res="0.0e+00" rms="0.0e+00" purity="0.0e+00" nType="0"><Node pos="l" depth="5" NCoef="0" IVar="-1" Cut="0.0e+00" cType="1" res="-0.04707985" rms="0.0e+00" purity="0.0e+00" nType="-99" /><Node pos="r" depth="5" NCoef="0" IVar="4" Cut="1.05077589" cType="1" res="0.0e+00" rms="0.0e+00" purity="0.0e+00" nType="0"><Node pos="l" depth="6" NCoef="0" IVar="17" Cut="0.93976444" cType="1" res="0.0e+00" rms="0.0e+00" purity="0.0e+00" nType="0"><Node pos="l" depth="7" NCoef="0" IVar="4" Cut="0.963941693" cType="1" res="0.0e+00" rms="0.0e+00" purity="0.0e+00" nType="0"><Node pos="l" depth="8" NCoef="0" IVar="-1" Cut="0.0e+00" cType="1" res="-0.0324272811" rms="0.0e+00" purity="0.0e+00" nType="-99" /><Node pos="r" depth="8" NCoef="0" IVar="-1" Cut="0.0e+00" cType="1" res="-0" rms="0.0e+00" purity="0.0e+00" nType="-99" /></Node><Node pos="r" depth="7" NCoef="0" IVar="-1" Cut="0.0e+00" cType="1" res="-0.0491954796" rms="0.0e+00" purity="0.0e+00" nType="-99" /></Node><Node pos="r" depth="6" NCoef="0" IVar="-1" Cut="0.0e+00" cType="1" res="-0.00859627221" rms="0.0e+00" purity="0.0e+00" nType="-99" /></Node></Node></Node><Node pos="r" depth="3" NCoef="0" IVar="4" Cut="1.05709481" cType="1" res="0.0e+00" rms="0.0e+00" purity="0.0e+00" nType="0"><Node pos="l" depth="4" NCoef="0" IVar="-1" Cut="0.0e+00" cType="1" res="-0.0386630818" rms="0.0e+00" purity="0.0e+00" nType="-99" /><Node pos="r" depth="4" NCoef="0" IVar="3" Cut="-0.415082157" cType="1" res="0.0e+00" rms="0.0e+00" purity="0.0e+00" nType="0"><Node pos="l" depth="5" NCoef="0" IVar="-1" Cut="0.0e+00" cType="1" res="0.00383188552" rms="0.0e+00" purity="0.0e+00" nType="-99" /><Node pos="r" depth="5" NCoef="0" IVar="-1" Cut="0.0e+00" cType="1" res="-0.0085451128" rms="0.0e+00" purity="0.0e+00" nType="-99" /></Node></Node></Node><Node pos="r" depth="2" NCoef="0" IVar="10" Cut="1358.42505" cType="1" res="0.0e+00" rms="0.0e+00" purity="0.0e+00" nType="0"><Node pos="l" depth="3" NCoef="0" IVar="4" Cut="0.862145483" cType="1" res="0.0e+00" rms="0.0e+00" purity="0.0e+00" nType="0"><Node pos="l" depth="4" NCoef="0" IVar="8" Cut="92.3442535" cType="1" res="0.0e+00" rms="0.0e+00" purity="0.0e+00" nType="0"><Node pos="l" depth="5" NCoef="0" IVar="-1" Cut="0.0e+00" cType="1" res="-0.0555063561" rms="0.0e+00" purity="0.0e+00" nType="-99" /><Node pos="r" depth="5" NCoef="0" IVar="18" Cut="0.00695994776" cType="1" res="0.0e+00" rms="0.0e+00" purity="0.0e+00" nType="0"><Node pos="l" depth="6" NCoef="0" IVar="-1" Cut="0.0e+00" cType="1" res="-0.0476729944" rms="0.0e+00" purity="0.0e+00" nType="-99" /><Node pos="r" depth="6" NCoef="0" IVar="0" Cut="-1.60071707" cType="1" res="0.0e+00" rms="0.0e+00" purity="0.0e+00" nType="0"><Node pos="l" depth="7" NCoef="0" IVar="-1" Cut="0.0e+00" cType="1" res="-0.0468567275" rms="0.0e+00" purity="0.0e+00" nType="-99" /><Node pos="r" depth="7" NCoef="0" IVar="0" Cut="1.04489338" cType="1" res="0.0e+00" rms="0.0e+00" purity="0.0e+00" nType="0"><Node pos="l" depth="8" NCoef="0" IVar="5" Cut="0.408376366" cType="1" res="0.0e+00" rms="0.0e+00" purity="0.0e+00" nType="0"><Node pos="l" depth="9" NCoef="0" IVar="-1" Cut="0.0e+00" cType="1" res="-0.028371485" rms="0.0e+00" purity="0.0e+00" nType="-99" /><Node pos="r" depth="9" NCoef="0" IVar="-1" Cut="0.0e+00" cType="1" res="0.00195776345" rms="0.0e+00" purity="0.0e+00" nType="-99" /></Node><Node pos="r" depth="8" NCoef="0" IVar="-1" Cut="0.0e+00" cType="1" res="-0.0334301069" rms="0.0e+00" purity="0.0e+00" nType="-99" /></Node></Node></Node></Node><Node pos="r" depth="4" NCoef="0" IVar="18" Cut="0.00629737927" cType="1" res="0.0e+00" rms="0.0e+00" purity="0.0e+00" nType="0"><Node pos="l" depth="5" NCoef="0" IVar="-1" Cut="0.0e+00" cType="1" res="-0.0380693041" rms="0.0e+00" purity="0.0e+00" nType="-99" /><Node pos="r" depth="5" NCoef="0" IVar="4" Cut="1.24162197" cType="1" res="0.0e+00" rms="0.0e+00" purity="0.0e+00" nType="0"><Node pos="l" depth="6" NCoef="0" IVar="17" Cut="0.983321071" cType="1" res="0.0e+00" rms="0.0e+00" purity="0.0e+00" nType="0"><Node pos="l" depth="7" NCoef="0" IVar="18" Cut="0.00960820168" cType="1" res="0.0e+00" rms="0.0e+00" purity="0.0e+00" nType="0"><Node pos="l" depth="8" NCoef="0" IVar="5" Cut="0.433515579" cType="1" res="0.0e+00" rms="0.0e+00" purity="0.0e+00" nType="0"><Node pos="l" depth="9" NCoef="0" IVar="-1" Cut="0.0e+00" cType="1" res="-0" rms="0.0e+00" purity="0.0e+00" nType="-99" /><Node pos="r" depth="9" NCoef="0" IVar="-1" Cut="0.0e+00" cType="1" res="0.0336412676" rms="0.0e+00" purity="0.0e+00" nType="-99" /></Node><Node pos="r" depth="8" NCoef="0" IVar="5" Cut="0.424524754" cType="1" res="0.0e+00" rms="0.0e+00" purity="0.0e+00" nType="0"><Node pos="l" depth="9" NCoef="0" IVar="-1" Cut="0.0e+00" cType="1" res="-0.0078385463" rms="0.0e+00" purity="0.0e+00" nType="-99" /><Node pos="r" depth="9" NCoef="0" IVar="-1" Cut="0.0e+00" cType="1" res="0.0121260118" rms="0.0e+00" purity="0.0e+00" nType="-99" /></Node></Node><Node pos="r" depth="7" NCoef="0" IVar="13" Cut="0.51172626" cType="1" res="0.0e+00" rms="0.0e+00" purity="0.0e+00" nType="0"><Node pos="l" depth="8" NCoef="0" IVar="-1" Cut="0.0e+00" cType="1" res="-0.0204355009" rms="0.0e+00" purity="0.0e+00" nType="-99" /><Node pos="r" depth="8" NCoef="0" IVar="-1" Cut="0.0e+00" cType="1" res="-0" rms="0.0e+00" purity="0.0e+00" nType="-99" /></Node></Node><Node pos="r" depth="6" NCoef="0" IVar="6" Cut="-0.0563358106" cType="1" res="0.0e+00" rms="0.0e+00" purity="0.0e+00" nType="0"><Node pos="l" depth="7" NCoef="0" IVar="-1" Cut="0.0e+00" cType="1" res="-0" rms="0.0e+00" purity="0.0e+00" nType="-99" /><Node pos="r" depth="7" NCoef="0" IVar="-1" Cut="0.0e+00" cType="1" res="0.0328494683" rms="0.0e+00" purity="0.0e+00" nType="-99" /></Node></Node></Node></Node><Node pos="r" depth="3" NCoef="0" IVar="4" Cut="1.15987694" cType="1" res="0.0e+00" rms="0.0e+00" purity="0.0e+00" nType="0"><Node pos="l" depth="4" NCoef="0" IVar="6" Cut="-0.0904695168" cType="1" res="0.0e+00" rms="0.0e+00" purity="0.0e+00" nType="0"><Node pos="l" depth="5" NCoef="0" IVar="18" Cut="0.0071244454" cType="1" res="0.0e+00" rms="0.0e+00" purity="0.0e+00" nType="0"><Node pos="l" depth="6" NCoef="0" IVar="-1" Cut="0.0e+00" cType="1" res="-0.05349553" rms="0.0e+00" purity="0.0e+00" nType="-99" /><Node pos="r" depth="6" NCoef="0" IVar="17" Cut="0.978808641" cType="1" res="0.0e+00" rms="0.0e+00" purity="0.0e+00" nType="0"><Node pos="l" depth="7" NCoef="0" IVar="18" Cut="0.0085205771" cType="1" res="0.0e+00" rms="0.0e+00" purity="0.0e+00" nType="0"><Node pos="l" depth="8" NCoef="0" IVar="-1" Cut="0.0e+00" cType="1" res="0.024705274" rms="0.0e+00" purity="0.0e+00" nType="-99" /><Node pos="r" depth="8" NCoef="0" IVar="21" Cut="0.725795686" cType="1" res="0.0e+00" rms="0.0e+00" purity="0.0e+00" nType="0"><Node pos="l" depth="9" NCoef="0" IVar="-1" Cut="0.0e+00" cType="1" res="-0.00749772089" rms="0.0e+00" purity="0.0e+00" nType="-99" /><Node pos="r" depth="9" NCoef="0" IVar="-1" Cut="0.0e+00" cType="1" res="-0.0280713886" rms="0.0e+00" purity="0.0e+00" nType="-99" /></Node></Node><Node pos="r" depth="7" NCoef="0" IVar="18" Cut="0.0189233478" cType="1" res="0.0e+00" rms="0.0e+00" purity="0.0e+00" nType="0"><Node pos="l" depth="8" NCoef="0" IVar="9" Cut="-1.1136179" cType="1" res="0.0e+00" rms="0.0e+00" purity="0.0e+00" nType="0"><Node pos="l" depth="9" NCoef="0" IVar="-1" Cut="0.0e+00" cType="1" res="-0.00974397827" rms="0.0e+00" purity="0.0e+00" nType="-99" /><Node pos="r" depth="9" NCoef="0" IVar="-1" Cut="0.0e+00" cType="1" res="-0.0421047956" rms="0.0e+00" purity="0.0e+00" nType="-99" /></Node><Node pos="r" depth="8" NCoef="0" IVar="-1" Cut="0.0e+00" cType="1" res="-0" rms="0.0e+00" purity="0.0e+00" nType="-99" /></Node></Node></Node><Node pos="r" depth="5" NCoef="0" IVar="4" Cut="0.73132956" cType="1" res="0.0e+00" rms="0.0e+00" purity="0.0e+00" nType="0"><Node pos="l" depth="6" NCoef="0" IVar="18" Cut="0.0072321007" cType="1" res="0.0e+00" rms="0.0e+00" purity="0.0e+00" nType="0"><Node pos="l" depth="7" NCoef="0" IVar="-1" Cut="0.0e+00" cType="1" res="-0.0512890033" rms="0.0e+00" purity="0.0e+00" nType="-99" /><Node pos="r" depth="7" NCoef="0" IVar="18" Cut="0.00932093523" cType="1" res="0.0e+00" rms="0.0e+00" purity="0.0e+00" nType="0"><Node pos="l" depth="8" NCoef="0" IVar="-1" Cut="0.0e+00" cType="1" res="-0" rms="0.0e+00" purity="0.0e+00" nType="-99" /><Node pos="r" depth="8" NCoef="0" IVar="-1" Cut="0.0e+00" cType="1" res="-0.0269667991" rms="0.0e+00" purity="0.0e+00" nType="-99" /></Node></Node><Node pos="r" depth="6" NCoef="0" IVar="17" Cut="0.985985219" cType="1" res="0.0e+00" rms="0.0e+00" purity="0.0e+00" nType="0"><Node pos="l" depth="7" NCoef="0" IVar="18" Cut="0.00684784912" cType="1" res="0.0e+00" rms="0.0e+00" purity="0.0e+00" nType="0"><Node pos="l" depth="8" NCoef="0" IVar="-1" Cut="0.0e+00" cType="1" res="-0.0109204529" rms="0.0e+00" purity="0.0e+00" nType="-99" /><Node pos="r" depth="8" NCoef="0" IVar="-1" Cut="0.0e+00" cType="1" res="0.0161975008" rms="0.0e+00" purity="0.0e+00" nType="-99" /></Node><Node pos="r" depth="7" NCoef="0" IVar="18" Cut="0.00638336688" cType="1" res="0.0e+00" rms="0.0e+00" purity="0.0e+00" nType="0"><Node pos="l" depth="8" NCoef="0" IVar="-1" Cut="0.0e+00" cType="1" res="-0.0436613336" rms="0.0e+00" purity="0.0e+00" nType="-99" /><Node pos="r" depth="8" NCoef="0" IVar="5" Cut="0.469029069" cType="1" res="0.0e+00" rms="0.0e+00" purity="0.0e+00" nType="0"><Node pos="l" depth="9" NCoef="0" IVar="-1" Cut="0.0e+00" cType="1" res="-0.0159150511" rms="0.0e+00" purity="0.0e+00" nType="-99" /><Node pos="r" depth="9" NCoef="0" IVar="-1" Cut="0.0e+00" cType="1" res="-0" rms="0.0e+00" purity="0.0e+00" nType="-99" /></Node></Node></Node></Node></Node><Node pos="r" depth="4" NCoef="0" IVar="18" Cut="0.00706749456" cType="1" res="0.0e+00" rms="0.0e+00" purity="0.0e+00" nType="0"><Node pos="l" depth="5" NCoef="0" IVar="-1" Cut="0.0e+00" cType="1" res="-0.0100437524" rms="0.0e+00" purity="0.0e+00" nType="-99" /><Node pos="r" depth="5" NCoef="0" IVar="4" Cut="1.68456256" cType="1" res="0.0e+00" rms="0.0e+00" purity="0.0e+00" nType="0"><Node pos="l" depth="6" NCoef="0" IVar="17" Cut="0.980320394" cType="1" res="0.0e+00" rms="0.0e+00" purity="0.0e+00" nType="0"><Node pos="l" depth="7" NCoef="0" IVar="-1" Cut="0.0e+00" cType="1" res="0.0463995561" rms="0.0e+00" purity="0.0e+00" nType="-99" /><Node pos="r" depth="7" NCoef="0" IVar="-1" Cut="0.0e+00" cType="1" res="0.0128529714" rms="0.0e+00" purity="0.0e+00" nType="-99" /></Node><Node pos="r" depth="6" NCoef="0" IVar="-1" Cut="0.0e+00" cType="1" res="0.0624225475" rms="0.0e+00" purity="0.0e+00" nType="-99" /></Node></Node></Node></Node></Node><Node pos="r" depth="1" NCoef="0" IVar="16" Cut="0.19564414" cType="1" res="0.0e+00" rms="0.0e+00" purity="0.0e+00" nType="0"><Node pos="l" depth="2" NCoef="0" IVar="5" Cut="0.990483224" cType="1" res="0.0e+00" rms="0.0e+00" purity="0.0e+00" nType="0"><Node pos="l" depth="3" NCoef="0" IVar="4" Cut="1.4365741" cType="1" res="0.0e+00" rms="0.0e+00" purity="0.0e+00" nType="0"><Node pos="l" depth="4" NCoef="0" IVar="8" Cut="70.2901306" cType="1" res="0.0e+00" rms="0.0e+00" purity="0.0e+00" nType="0"><Node pos="l" depth="5" NCoef="0" IVar="13" Cut="0.679196537" cType="1" res="0.0e+00" rms="0.0e+00" purity="0.0e+00" nType="0"><Node pos="l" depth="6" NCoef="0" IVar="13" Cut="0.385920495" cType="1" res="0.0e+00" rms="0.0e+00" purity="0.0e+00" nType="0"><Node pos="l" depth="7" NCoef="0" IVar="-1" Cut="0.0e+00" cType="1" res="-0.0387266912" rms="0.0e+00" purity="0.0e+00" nType="-99" /><Node pos="r" depth="7" NCoef="0" IVar="-1" Cut="0.0e+00" cType="1" res="-0.00808877219" rms="0.0e+00" purity="0.0e+00" nType="-99" /></Node><Node pos="r" depth="6" NCoef="0" IVar="-1" Cut="0.0e+00" cType="1" res="0.0210775603" rms="0.0e+00" purity="0.0e+00" nType="-99" /></Node><Node pos="r" depth="5" NCoef="0" IVar="4" Cut="0.929531872" cType="1" res="0.0e+00" rms="0.0e+00" purity="0.0e+00" nType="0"><Node pos="l" depth="6" NCoef="0" IVar="-1" Cut="0.0e+00" cType="1" res="-0" rms="0.0e+00" purity="0.0e+00" nType="-99" /><Node pos="r" depth="6" NCoef="0" IVar="-1" Cut="0.0e+00" cType="1" res="0.0393649973" rms="0.0e+00" purity="0.0e+00" nType="-99" /></Node></Node><Node pos="r" depth="4" NCoef="0" IVar="6" Cut="0.563884556" cType="1" res="0.0e+00" rms="0.0e+00" purity="0.0e+00" nType="0"><Node pos="l" depth="5" NCoef="0" IVar="-1" Cut="0.0e+00" cType="1" res="0.0602375455" rms="0.0e+00" purity="0.0e+00" nType="-99" /><Node pos="r" depth="5" NCoef="0" IVar="4" Cut="2.17860198" cType="1" res="0.0e+00" rms="0.0e+00" purity="0.0e+00" nType="0"><Node pos="l" depth="6" NCoef="0" IVar="-1" Cut="0.0e+00" cType="1" res="0.073612161" rms="0.0e+00" purity="0.0e+00" nType="-99" /><Node pos="r" depth="6" NCoef="0" IVar="-1" Cut="0.0e+00" cType="1" res="0.126899004" rms="0.0e+00" purity="0.0e+00" nType="-99" /></Node></Node></Node><Node pos="r" depth="3" NCoef="0" IVar="4" Cut="2.26332021" cType="1" res="0.0e+00" rms="0.0e+00" purity="0.0e+00" nType="0"><Node pos="l" depth="4" NCoef="0" IVar="-1" Cut="0.0e+00" cType="1" res="0.0862778425" rms="0.0e+00" purity="0.0e+00" nType="-99" /><Node pos="r" depth="4" NCoef="0" IVar="-1" Cut="0.0e+00" cType="1" res="0.148823842" rms="0.0e+00" purity="0.0e+00" nType="-99" /></Node></Node><Node pos="r" depth="2" NCoef="0" IVar="10" Cut="1850.91431" cType="1" res="0.0e+00" rms="0.0e+00" purity="0.0e+00" nType="0"><Node pos="l" depth="3" NCoef="0" IVar="4" Cut="1.24162197" cType="1" res="0.0e+00" rms="0.0e+00" purity="0.0e+00" nType="0"><Node pos="l" depth="4" NCoef="0" IVar="8" Cut="167.060272" cType="1" res="0.0e+00" rms="0.0e+00" purity="0.0e+00" nType="0"><Node pos="l" depth="5" NCoef="0" IVar="5" Cut="0.604938209" cType="1" res="0.0e+00" rms="0.0e+00" purity="0.0e+00" nType="0"><Node pos="l" depth="6" NCoef="0" IVar="17" Cut="0.995268524" cType="1" res="0.0e+00" rms="0.0e+00" purity="0.0e+00" nType="0"><Node pos="l" depth="7" NCoef="0" IVar="4" Cut="0.689411223" cType="1" res="0.0e+00" rms="0.0e+00" purity="0.0e+00" nType="0"><Node pos="l" depth="8" NCoef="0" IVar="5" Cut="0.357022971" cType="1" res="0.0e+00" rms="0.0e+00" purity="0.0e+00" nType="0"><Node pos="l" depth="9" NCoef="0" IVar="-1" Cut="0.0e+00" cType="1" res="-0.0316295698" rms="0.0e+00" purity="0.0e+00" nType="-99" /><Node pos="r" depth="9" NCoef="0" IVar="-1" Cut="0.0e+00" cType="1" res="-0.0103137009" rms="0.0e+00" purity="0.0e+00" nType="-99" /></Node><Node pos="r" depth="8" NCoef="0" IVar="8" Cut="128.433975" cType="1" res="0.0e+00" rms="0.0e+00" purity="0.0e+00" nType="0"><Node pos="l" depth="9" NCoef="0" IVar="-1" Cut="0.0e+00" cType="1" res="0.0153001295" rms="0.0e+00" purity="0.0e+00" nType="-99" /><Node pos="r" depth="9" NCoef="0" IVar="-1" Cut="0.0e+00" cType="1" res="-0" rms="0.0e+00" purity="0.0e+00" nType="-99" /></Node></Node><Node pos="r" depth="7" NCoef="0" IVar="13" Cut="0.600760758" cType="1" res="0.0e+00" rms="0.0e+00" purity="0.0e+00" nType="0"><Node pos="l" depth="8" NCoef="0" IVar="-1" Cut="0.0e+00" cType="1" res="-0.0325401872" rms="0.0e+00" purity="0.0e+00" nType="-99" /><Node pos="r" depth="8" NCoef="0" IVar="-1" Cut="0.0e+00" cType="1" res="-0" rms="0.0e+00" purity="0.0e+00" nType="-99" /></Node></Node><Node pos="r" depth="6" NCoef="0" IVar="6" Cut="0.573335588" cType="1" res="0.0e+00" rms="0.0e+00" purity="0.0e+00" nType="0"><Node pos="l" depth="7" NCoef="0" IVar="-1" Cut="0.0e+00" cType="1" res="-0" rms="0.0e+00" purity="0.0e+00" nType="-99" /><Node pos="r" depth="7" NCoef="0" IVar="-1" Cut="0.0e+00" cType="1" res="0.0240046345" rms="0.0e+00" purity="0.0e+00" nType="-99" /></Node></Node><Node pos="r" depth="5" NCoef="0" IVar="18" Cut="0.00629737927" cType="1" res="0.0e+00" rms="0.0e+00" purity="0.0e+00" nType="0"><Node pos="l" depth="6" NCoef="0" IVar="-1" Cut="0.0e+00" cType="1" res="-0" rms="0.0e+00" purity="0.0e+00" nType="-99" /><Node pos="r" depth="6" NCoef="0" IVar="-1" Cut="0.0e+00" cType="1" res="0.0433004163" rms="0.0e+00" purity="0.0e+00" nType="-99" /></Node></Node><Node pos="r" depth="4" NCoef="0" IVar="6" Cut="0.720489442" cType="1" res="0.0e+00" rms="0.0e+00" purity="0.0e+00" nType="0"><Node pos="l" depth="5" NCoef="0" IVar="17" Cut="0.992405832" cType="1" res="0.0e+00" rms="0.0e+00" purity="0.0e+00" nType="0"><Node pos="l" depth="6" NCoef="0" IVar="18" Cut="0.00678848615" cType="1" res="0.0e+00" rms="0.0e+00" purity="0.0e+00" nType="0"><Node pos="l" depth="7" NCoef="0" IVar="-1" Cut="0.0e+00" cType="1" res="0.0316065364" rms="0.0e+00" purity="0.0e+00" nType="-99" /><Node pos="r" depth="7" NCoef="0" IVar="8" Cut="255.715027" cType="1" res="0.0e+00" rms="0.0e+00" purity="0.0e+00" nType="0"><Node pos="l" depth="8" NCoef="0" IVar="-1" Cut="0.0e+00" cType="1" res="0.0592487529" rms="0.0e+00" purity="0.0e+00" nType="-99" /><Node pos="r" depth="8" NCoef="0" IVar="-1" Cut="0.0e+00" cType="1" res="0.0909776688" rms="0.0e+00" purity="0.0e+00" nType="-99" /></Node></Node><Node pos="r" depth="6" NCoef="0" IVar="-1" Cut="0.0e+00" cType="1" res="0.0325382873" rms="0.0e+00" purity="0.0e+00" nType="-99" /></Node><Node pos="r" depth="5" NCoef="0" IVar="4" Cut="1.77552032" cType="1" res="0.0e+00" rms="0.0e+00" purity="0.0e+00" nType="0"><Node pos="l" depth="6" NCoef="0" IVar="8" Cut="290.162903" cType="1" res="0.0e+00" rms="0.0e+00" purity="0.0e+00" nType="0"><Node pos="l" depth="7" NCoef="0" IVar="-1" Cut="0.0e+00" cType="1" res="0.0530721582" rms="0.0e+00" purity="0.0e+00" nType="-99" /><Node pos="r" depth="7" NCoef="0" IVar="-1" Cut="0.0e+00" cType="1" res="0.0862565786" rms="0.0e+00" purity="0.0e+00" nType="-99" /></Node><Node pos="r" depth="6" NCoef="0" IVar="13" Cut="0.123699561" cType="1" res="0.0e+00" rms="0.0e+00" purity="0.0e+00" nType="0"><Node pos="l" depth="7" NCoef="0" IVar="-1" Cut="0.0e+00" cType="1" res="0.118869483" rms="0.0e+00" purity="0.0e+00" nType="-99" /><Node pos="r" depth="7" NCoef="0" IVar="-1" Cut="0.0e+00" cType="1" res="0.0771605447" rms="0.0e+00" purity="0.0e+00" nType="-99" /></Node></Node></Node></Node><Node pos="r" depth="3" NCoef="0" IVar="4" Cut="1.70615578" cType="1" res="0.0e+00" rms="0.0e+00" purity="0.0e+00" nType="0"><Node pos="l" depth="4" NCoef="0" IVar="8" Cut="205.544907" cType="1" res="0.0e+00" rms="0.0e+00" purity="0.0e+00" nType="0"><Node pos="l" depth="5" NCoef="0" IVar="5" Cut="0.625203669" cType="1" res="0.0e+00" rms="0.0e+00" purity="0.0e+00" nType="0"><Node pos="l" depth="6" NCoef="0" IVar="17" Cut="0.958726287" cType="1" res="0.0e+00" rms="0.0e+00" purity="0.0e+00" nType="0"><Node pos="l" depth="7" NCoef="0" IVar="4" Cut="0.772192538" cType="1" res="0.0e+00" rms="0.0e+00" purity="0.0e+00" nType="0"><Node pos="l" depth="8" NCoef="0" IVar="-1" Cut="0.0e+00" cType="1" res="0.00101723662" rms="0.0e+00" purity="0.0e+00" nType="-99" /><Node pos="r" depth="8" NCoef="0" IVar="-1" Cut="0.0e+00" cType="1" res="0.0540146716" rms="0.0e+00" purity="0.0e+00" nType="-99" /></Node><Node pos="r" depth="7" NCoef="0" IVar="13" Cut="0.574180365" cType="1" res="0.0e+00" rms="0.0e+00" purity="0.0e+00" nType="0"><Node pos="l" depth="8" NCoef="0" IVar="6" Cut="0.453280121" cType="1" res="0.0e+00" rms="0.0e+00" purity="0.0e+00" nType="0"><Node pos="l" depth="9" NCoef="0" IVar="-1" Cut="0.0e+00" cType="1" res="-0.013572555" rms="0.0e+00" purity="0.0e+00" nType="-99" /><Node pos="r" depth="9" NCoef="0" IVar="-1" Cut="0.0e+00" cType="1" res="-0" rms="0.0e+00" purity="0.0e+00" nType="-99" /></Node><Node pos="r" depth="8" NCoef="0" IVar="-1" Cut="0.0e+00" cType="1" res="0.0311831087" rms="0.0e+00" purity="0.0e+00" nType="-99" /></Node></Node><Node pos="r" depth="6" NCoef="0" IVar="6" Cut="0.610454321" cType="1" res="0.0e+00" rms="0.0e+00" purity="0.0e+00" nType="0"><Node pos="l" depth="7" NCoef="0" IVar="-1" Cut="0.0e+00" cType="1" res="0.0327861272" rms="0.0e+00" purity="0.0e+00" nType="-99" /><Node pos="r" depth="7" NCoef="0" IVar="-1" Cut="0.0e+00" cType="1" res="0.0642433986" rms="0.0e+00" purity="0.0e+00" nType="-99" /></Node></Node><Node pos="r" depth="5" NCoef="0" IVar="-1" Cut="0.0e+00" cType="1" res="0.0749944299" rms="0.0e+00" purity="0.0e+00" nType="-99" /></Node><Node pos="r" depth="4" NCoef="0" IVar="6" Cut="0.861685932" cType="1" res="0.0e+00" rms="0.0e+00" purity="0.0e+00" nType="0"><Node pos="l" depth="5" NCoef="0" IVar="-1" Cut="0.0e+00" cType="1" res="0.103687547" rms="0.0e+00" purity="0.0e+00" nType="-99" /><Node pos="r" depth="5" NCoef="0" IVar="4" Cut="2.82423806" cType="1" res="0.0e+00" rms="0.0e+00" purity="0.0e+00" nType="0"><Node pos="l" depth="6" NCoef="0" IVar="-1" Cut="0.0e+00" cType="1" res="0.116587289" rms="0.0e+00" purity="0.0e+00" nType="-99" /><Node pos="r" depth="6" NCoef="0" IVar="-1" Cut="0.0e+00" cType="1" res="0.15592891" rms="0.0e+00" purity="0.0e+00" nType="-99" /></Node></Node></Node></Node></Node></Node></BinaryTree><BinaryTree type="DecisionTree" boostWeight="1.0e+00" itree="5"><Node pos="s" depth="0" NCoef="0" IVar="4" Cut="1.25153649" cType="1" res="0.0e+00" rms="0.0e+00" purity="0.0e+00" nType="0"><Node pos="l" depth="1" NCoef="0" IVar="5" Cut="0.614727199" cType="1" res="0.0e+00" rms="0.0e+00" purity="0.0e+00" nType="0"><Node pos="l" depth="2" NCoef="0" IVar="4" Cut="0.830597162" cType="1" res="0.0e+00" rms="0.0e+00" purity="0.0e+00" nType="0"><Node pos="l" depth="3" NCoef="0" IVar="4" Cut="0.649397492" cType="1" res="0.0e+00" rms="0.0e+00" purity="0.0e+00" nType="0"><Node pos="l" depth="4" NCoef="0" IVar="9" Cut="1.61802602" cType="1" res="0.0e+00" rms="0.0e+00" purity="0.0e+00" nType="0"><Node pos="l" depth="5" NCoef="0" IVar="13" Cut="-0.303615957" cType="1" res="0.0e+00" rms="0.0e+00" purity="0.0e+00" nType="0"><Node pos="l" depth="6" NCoef="0" IVar="-1" Cut="0.0e+00" cType="1" res="-0.0660617426" rms="0.0e+00" purity="0.0e+00" nType="-99" /><Node pos="r" depth="6" NCoef="0" IVar="17" Cut="0.961477518" cType="1" res="0.0e+00" rms="0.0e+00" purity="0.0e+00" nType="0"><Node pos="l" depth="7" NCoef="0" IVar="6" Cut="0.378398597" cType="1" res="0.0e+00" rms="0.0e+00" purity="0.0e+00" nType="0"><Node pos="l" depth="8" NCoef="0" IVar="-1" Cut="0.0e+00" cType="1" res="-0.0423824005" rms="0.0e+00" purity="0.0e+00" nType="-99" /><Node pos="r" depth="8" NCoef="0" IVar="10" Cut="1708.93469" cType="1" res="0.0e+00" rms="0.0e+00" purity="0.0e+00" nType="0"><Node pos="l" depth="9" NCoef="0" IVar="-1" Cut="0.0e+00" cType="1" res="-0.018218752" rms="0.0e+00" purity="0.0e+00" nType="-99" /><Node pos="r" depth="9" NCoef="0" IVar="-1" Cut="0.0e+00" cType="1" res="0.0056101731" rms="0.0e+00" purity="0.0e+00" nType="-99" /></Node></Node><Node pos="r" depth="7" NCoef="0" IVar="6" Cut="0.400557816" cType="1" res="0.0e+00" rms="0.0e+00" purity="0.0e+00" nType="0"><Node pos="l" depth="8" NCoef="0" IVar="-1" Cut="0.0e+00" cType="1" res="-0.0650080442" rms="0.0e+00" purity="0.0e+00" nType="-99" /><Node pos="r" depth="8" NCoef="0" IVar="-1" Cut="0.0e+00" cType="1" res="-0.0304254182" rms="0.0e+00" purity="0.0e+00" nType="-99" /></Node></Node></Node><Node pos="r" depth="5" NCoef="0" IVar="6" Cut="-0.101324581" cType="1" res="0.0e+00" rms="0.0e+00" purity="0.0e+00" nType="0"><Node pos="l" depth="6" NCoef="0" IVar="10" Cut="1948.9137" cType="1" res="0.0e+00" rms="0.0e+00" purity="0.0e+00" nType="0"><Node pos="l" depth="7" NCoef="0" IVar="-1" Cut="0.0e+00" cType="1" res="-0.0550096966" rms="0.0e+00" purity="0.0e+00" nType="-99" /><Node pos="r" depth="7" NCoef="0" IVar="-1" Cut="0.0e+00" cType="1" res="-0.0290634874" rms="0.0e+00" purity="0.0e+00" nType="-99" /></Node><Node pos="r" depth="6" NCoef="0" IVar="10" Cut="1296.96863" cType="1" res="0.0e+00" rms="0.0e+00" purity="0.0e+00" nType="0"><Node pos="l" depth="7" NCoef="0" IVar="-1" Cut="0.0e+00" cType="1" res="-0.0375232548" rms="0.0e+00" purity="0.0e+00" nType="-99" /><Node pos="r" depth="7" NCoef="0" IVar="-1" Cut="0.0e+00" cType="1" res="-0.0122131407" rms="0.0e+00" purity="0.0e+00" nType="-99" /></Node></Node></Node><Node pos="r" depth="4" NCoef="0" IVar="5" Cut="0.469029069" cType="1" res="0.0e+00" rms="0.0e+00" purity="0.0e+00" nType="0"><Node pos="l" depth="5" NCoef="0" IVar="7" Cut="1.28908122" cType="1" res="0.0e+00" rms="0.0e+00" purity="0.0e+00" nType="0"><Node pos="l" depth="6" NCoef="0" IVar="1" Cut="1.11023569" cType="1" res="0.0e+00" rms="0.0e+00" purity="0.0e+00" nType="0"><Node pos="l" depth="7" NCoef="0" IVar="6" Cut="-0.81730026" cType="1" res="0.0e+00" rms="0.0e+00" purity="0.0e+00" nType="0"><Node pos="l" depth="8" NCoef="0" IVar="17" Cut="0.544265747" cType="1" res="0.0e+00" rms="0.0e+00" purity="0.0e+00" nType="0"><Node pos="l" depth="9" NCoef="0" IVar="-1" Cut="0.0e+00" cType="1" res="-0.0364218578" rms="0.0e+00" 